34 64
1 -0.15916967 -0.3549424 0.1503959 -0.10856415 0.12446893 -0.19249365 0.14566195 0.04838149 0.057421178 0.0021202476 -0.059192725 0.18942198 0.10214448 -0.21434616 0.07328879 -0.29282978 -0.096407995 -0.293867 0.10351725 -0.12328249 0.35725963 -0.0039581577 0.11775239 0.10584047 0.01805629 -0.082179815 -0.011298936 0.035651222 0.17065439 0.0530014 -0.045754734 0.09246044 -0.06271625 0.10936655 -0.1354415 -0.20800284 0.13011324 0.06832391 0.11147436 -0.1771516 -0.19520184 -0.0031891244 0.16191636 0.1647181 -0.22030148 0.18857434 -0.062399637 -0.11456053 0.11172826 0.13804357 -0.219135 0.20190129 0.04226962 0.2230404 -0.3593447 -0.13007015 -0.014057674 0.025162192 -0.106637545 0.07181241 0.28825158 -0.20189498 -0.05417843 0.14690262
34 -0.24067867 -0.29229364 0.24381167 -0.038457606 0.21423972 -0.13908418 0.3029964 -0.26515433 -0.39815792 0.07295656 -0.16306065 0.14141555 0.073873356 -0.12933938 -0.1822948 -0.27889323 -0.037387732 -0.16011037 0.04382954 -0.024551969 0.30115628 0.1331989 0.20553297 0.042329423 -0.22349879 -0.1100427 0.046432056 0.10429296 0.09166647 0.15496506 -0.012803605 0.13201825 -0.1134363 0.19969916 -0.0632218 -0.03606457 0.35555205 0.13297565 0.14404768 -0.17396097 -0.26657283 0.1764398 0.053113148 0.106010765 -0.058847144 0.124176525 -0.024648475 -0.17818286 -0.16105296 0.086196415 0.049958497 0.19816837 0.04395323 0.1037524 -0.29273415 -0.19863525 -0.102582134 -0.008889092 -0.17248258 0.08943656 0.10395801 -0.058745448 -0.2740532 0.08113216
33 -0.21347186 -0.31064513 0.21022588 -0.044559766 0.18860048 -0.14835884 0.25831345 -0.17388132 -0.2700679 0.049295507 -0.123217165 0.1450225 0.07216682 -0.1395925 -0.10239865 -0.25887138 -0.055656508 -0.18022718 0.03897383 -0.050571457 0.30790058 0.09192161 0.18203138 0.0512793 -0.15959027 -0.10108126 0.017793523 0.07868596 0.10313229 0.12275687 -0.020600628 0.11788133 -0.089620374 0.16852789 -0.079433225 -0.07302025 0.27472198 0.1054815 0.11163078 -0.16166645 -0.23692387 0.13122693 0.071701854 0.10005644 -0.085066035 0.13987985 -0.027236331 -0.15816106 -0.0985439 0.08888106 -0.011623248 0.19500175 0.041524306 0.10769219 -0.2892478 -0.16739576 -0.08325292 -0.0019509625 -0.13351148 0.0875757 0.15193292 -0.09283501 -0.20764539 0.096420065
3 -0.19468999 -0.31357285 0.19319172 -0.074523985 0.15960304 -0.16218108 0.21115902 -0.08798453 -0.15236901 0.028680863 -0.09318431 0.1516345 0.07400937 -0.16970997 -0.039371967 -0.2723231 -0.06532931 -0.22360636 0.066462085 -0.08089481 0.30426788 0.058055002 0.14132163 0.079699665 -0.079803266 -0.0864533 0.012648304 0.072741136 0.13950886 0.09876779 -0.03904663 0.09679048 -0.089111015 0.15240502 -0.10053507 -0.12988518 0.22219473 0.09326513 0.12069046 -0.1676751 -0.21311423 0.06413343 0.10802019 0.13779208 -0.13833323 0.15386045 -0.038996767 -0.14323758 -0.024262806 0.11399988 -0.087788776 0.18290794 0.033459738 0.1619904 -0.32140964 -0.15721808 -0.05630541 0.012233737 -0.13254996 0.081031285 0.19625483 -0.1307974 -0.14713761 0.115369365
2 -0.1759883 -0.33933365 0.17465314 -0.089487664 0.14974487 -0.17884876 0.19463266 -0.030285764 -0.07604565 0.02162126 -0.08782787 0.17997809 0.095962934 -0.19492884 0.0033759824 -0.28969556 -0.089729525 -0.24674778 0.08281453 -0.09549697 0.34049565 0.035737567 0.14552297 0.08049728 -0.056789815 -0.08579926 0.003293774 0.054671254 0.15606734 0.08380098 -0.03287096 0.09599684 -0.08522956 0.14497633 -0.12139982 -0.15339436 0.20085436 0.07832113 0.11959279 -0.17567912 -0.21057549 0.054343536 0.13546409 0.14672153 -0.17478494 0.16813032 -0.05371171 -0.13818726 0.034710325 0.11345861 -0.140429 0.18637063 0.04969879 0.19498613 -0.34860522 -0.14550647 -0.035387836 0.022478003 -0.12442622 0.07915577 0.23525019 -0.15818954 -0.11804436 0.118473396
32 -0.22552735 -0.3094668 0.21334787 -0.055717584 0.19047329 -0.14206226 0.27720666 -0.21367858 -0.31342825 0.061056785 -0.13889772 0.14961262 0.0706903 -0.13873754 -0.12802756 -0.27053863 -0.048136365 -0.19382429 0.0395941 -0.044607814 0.309963 0.113230646 0.17668585 0.05898069 -0.1823113 -0.10579988 0.022435538 0.09662146 0.10653766 0.13147628 -0.024508568 0.12290366 -0.0872146 0.17819415 -0.08555667 -0.07690494 0.31597707 0.13041061 0.13286026 -0.18804888 -0.2558712 0.13756177 0.061449554 0.11205226 -0.09611766 0.14855105 -0.028690612 -0.15496418 -0.115968406 0.08963962 -0.003924944 0.20673777 0.032019578 0.12138445 -0.30391484 -0.18715 -0.08929066 -0.009143023 -0.16145928 0.08677216 0.1432983 -0.08834489 -0.22742088 0.10868107
4 -0.16410245 -0.31760353 0.15966003 -0.089709304 0.14281908 -0.182803 0.14980556 0.013161166 -0.017363291 0.0058923676 -0.060016885 0.17205277 0.09521909 -0.18760371 0.03440976 -0.26742792 -0.086739965 -0.24905626 0.090228826 -0.09601831 0.31904912 0.017852824 0.11248193 0.07878376 -0.02074367 -0.07029038 -0.003209715 0.055062067 0.16217224 0.0600579 -0.045772877 0.08437912 -0.075408556 0.12524788 -0.11458417 -0.16826035 0.17271508 0.0745696 0.11330635 -0.15759753 -0.18340456 0.015477981 0.14697923 0.1572763 -0.1728622 0.15567055 -0.058142733 -0.12868245 0.049599987 0.11413802 -0.15942991 0.17083737 0.048066907 0.19994552 -0.33959714 -0.13092873 -0.022055695 0.025149532 -0.10909682 0.057471607 0.2571703 -0.17774901 -0.08338483 0.120408975
14 -0.1741056 -0.35355014 0.16819604 -0.10341455 0.14434081 -0.18412879 0.15970083 0.009697537 -0.0036040673 0.010720354 -0.07438444 0.18599696 0.08664071 -0.1981929 0.050884273 -0.28182203 -0.09307933 -0.26897073 0.094347104 -0.11228843 0.3451071 0.019148286 0.12505743 0.09423465 -0.015781384 -0.0778844 0.0013526464 0.04871175 0.15418124 0.071819134 -0.03439068 0.09358277 -0.075324774 0.12956677 -0.117224745 -0.18106654 0.16420789 0.074098885 0.10856287 -0.1721154 -0.19783832 0.022774193 0.15215677 0.15922107 -0.19003229 0.17900302 -0.053587615 -0.120274775 0.06916114 0.13524611 -0.1844002 0.18848923 0.04502448 0.20869179 -0.34868363 -0.14052032 -0.030121714 0.03145067 -0.11649937 0.063589685 0.2662838 -0.19223309 -0.072003216 0.12664343
24 -0.21257801 -0.2855296 0.2210112 -0.040068697 0.19008964 -0.1356105 0.27006656 -0.22770464 -0.32567245 0.06483136 -0.12909187 0.13164441 0.07501961 -0.13423216 -0.14516355 -0.26092687 -0.044362795 -0.18175654 0.048090514 -0.03330444 0.3016662 0.11502736 0.18140139 0.06531756 -0.18855374 -0.10232893 0.02310408 0.077303536 0.08890378 0.15164949 -0.020041542 0.11711953 -0.09549862 0.16529964 -0.078305274 -0.06859715 0.3234828 0.12638263 0.12252322 -0.1839903 -0.24101241 0.15050825 0.04826845 0.10350411 -0.0831213 0.15300421 -0.037691526 -0.1442505 -0.12415533 0.082196005 0.022563107 0.20672552 0.026442152 0.10690441 -0.2747635 -0.17568891 -0.076785386 -0.01067832 -0.16289818 0.08445909 0.12089182 -0.075477384 -0.21940655 0.09998233
9 -0.2071917 -0.33138534 0.19311634 -0.0775111 0.17401122 -0.17107727 0.22788703 -0.1084207 -0.16691822 0.038264055 -0.10588459 0.17551652 0.08599517 -0.17851831 -0.052486647 -0.28864327 -0.07719601 -0.22526419 0.069579385 -0.07094199 0.32169342 0.071372315 0.16661687 0.065527946 -0.10525299 -0.08687587 0.013169059 0.061809093 0.1309582 0.1102914 -0.02730288 0.11443581 -0.092462815 0.15039061 -0.091179535 -0.1254998 0.25259495 0.10299605 0.11733321 -0.17291337 -0.23460239 0.08117544 0.10861837 0.14041385 -0.14324364 0.1576416 -0.044289317 -0.14908807 -0.032873876 0.10120314 -0.08930922 0.1976312 0.036600903 0.16282438 -0.3154002 -0.16388164 -0.05935984 0.0067537175 -0.14077953 0.07157579 0.19917795 -0.1333609 -0.16457531 0.116162516
7 -0.13624783 -0.38194633 0.11394936 -0.10510463 0.100214526 -0.18998274 0.1337054 0.10930415 0.16361167 -0.015091784 -0.03394494 0.20395534 0.09643365 -0.2185197 0.14368235 -0.2777356 -0.10715361 -0.3139272 0.09032003 -0.13601777 0.35704958 -0.04473119 0.112443246 0.11227978 0.0833995 -0.09733999 -0.04415778 -0.0076916786 0.16245982 0.03153842 -0.024071239 0.08724222 -0.046088986 0.065883674 -0.13822763 -0.22623576 0.08853482 0.056599997 0.079312876 -0.16775528 -0.1838616 -0.020061167 0.18077138 0.16695288 -0.25236177 0.2062853 -0.045709524 -0.09862541 0.17308898 0.14542377 -0.2694887 0.21100469 0.043908827 0.23345385 -0.35233408 -0.12120839 0.001522988 0.013455763 -0.0665596 0.066236794 0.32299858 -0.21424204 0.0074559785 0.17137702
28 -0.19827722 -0.31210077 0.1956045 -0.062809624 0.16186136 -0.14510204 0.21831626 -0.11928933 -0.18685165 0.033493742 -0.09905042 0.14911012 0.07448345 -0.14806576 -0.06570744 -0.25932384 -0.060866017 -0.21050036 0.07018712 -0.056242466 0.29759827 0.067641184 0.15263325 0.06953301 -0.11602264 -0.08910693 0.004185331 0.06508124 0.12360461 0.110927016 -0.026543612 0.108778104 -0.07762308 0.15439886 -0.09958513 -0.11888702 0.2578672 0.10465992 0.11667116 -0.1703167 -0.21768308 0.08254139 0.095015146 0.1278411 -0.13248897 0.15391268 -0.05047672 -0.13671614 -0.049454477 0.09672828 -0.07310974 0.19421928 0.043699414 0.13772017 -0.29986143 -0.16035281 -0.058981016 -0.0038024297 -0.15086621 0.079363935 0.1758079 -0.12263284 -0.15113027 0.119767144
8 -0.17836975 -0.35415363 0.17718142 -0.091139704 0.14467674 -0.17979878 0.1872977 -0.020580398 -0.04692256 0.023085507 -0.0825951 0.18167919 0.08997444 -0.19599667 0.026554715 -0.29597318 -0.08516196 -0.2621523 0.09591345 -0.09511752 0.3441007 0.02712292 0.1382078 0.08331443 -0.037213217 -0.07975674 -0.003000462 0.05402088 0.15096954 0.082593635 -0.03825125 0.10157392 -0.07300739 0.13454466 -0.12092117 -0.16978242 0.19491543 0.08178907 0.121960156 -0.16701122 -0.21124773 0.041851882 0.13188128 0.15543175 -0.17963587 0.18433383 -0.059089024 -0.13114609 0.04283727 0.12610957 -0.16136558 0.19426341 0.051225264 0.20285931 -0.3528185 -0.145405 -0.039446507 0.011635126 -0.1250737 0.06915914 0.24521375 -0.17562012 -0.10148654 0.134941
6 -0.15374334 -0.38377097 0.13928697 -0.09543329 0.12045403 -0.19445886 0.14507225 0.09107433 0.11704953 -0.009816692 -0.038966995 0.19898403 0.09249707 -0.21768044 0.11980635 -0.28573588 -0.107185 -0.31660414 0.10720414 -0.13392095 0.3597419 -0.033219457 0.116321094 0.10021393 0.060932856 -0.0981521 -0.024965074 -0.00069447095 0.17144543 0.05463593 -0.030706273 0.0759078 -0.04935209 0.089243315 -0.13558184 -0.21993767 0.118656635 0.07594587 0.08332369 -0.17852555 -0.18796477 -0.007695335 0.18828544 0.16476616 -0.2513559 0.20365664 -0.047903575 -0.11514457 0.1541553 0.1518592 -0.2479892 0.2106421 0.03993848 0.228952 -0.3550217 -0.13817894 -0.003933007 0.019899882 -0.08511008 0.05723787 0.32324716 -0.21117496 -0.015378344 0.1667002
30 -0.21201585 -0.3267404 0.20571849 -0.050274283 0.17691271 -0.14992961 0.26802588 -0.17933726 -0.25803638 0.055341803 -0.13330902 0.15691577 0.07195632 -0.15006198 -0.10127847 -0.28237572 -0.054596975 -0.2117432 0.046467636 -0.048214298 0.31644666 0.085251056 0.18177916 0.056805953 -0.14089964 -0.1110355 0.02466199 0.07497819 0.100272134 0.12869015 -0.020823147 0.10915406 -0.08652625 0.15513955 -0.08763016 -0.08358059 0.28604567 0.12456003 0.12562534 -0.18635345 -0.23918402 0.12414612 0.08105085 0.12449539 -0.10850522 0.15210108 -0.029794706 -0.15552402 -0.08210455 0.10730882 -0.028812248 0.20898698 0.03944896 0.11965403 -0.29239967 -0.17774694 -0.08343013 0.0007612278 -0.1403395 0.07957078 0.16084062 -0.106455065 -0.18694718 0.10830289
29 -0.22080007 -0.30868122 0.21319318 -0.059968475 0.19003405 -0.1558539 0.25678498 -0.19079001 -0.2742318 0.051446963 -0.122843735 0.15115035 0.07167867 -0.14742711 -0.11067857 -0.27516648 -0.063564435 -0.20274678 0.06394646 -0.048385434 0.31533796 0.09065073 0.16990735 0.0627888 -0.16643271 -0.10453869 0.023369614 0.074056216 0.11531689 0.13513446 -0.016311537 0.11370701 -0.089625955 0.16913548 -0.09490796 -0.084752254 0.3036848 0.12003128 0.13026229 -0.18871032 -0.23612188 0.12929939 0.067848206 0.108842745 -0.09585754 0.16254678 -0.0409543 -0.15713972 -0.09807184 0.09818322 -0.024506738 0.20125295 0.036363877 0.123218454 -0.31444326 -0.17089023 -0.06687827 0.0013806865 -0.15700923 0.09094734 0.1593216 -0.10709328 -0.21014735 0.10723937
5 -0.15772331 -0.3726116 0.13192807 -0.095171586 0.122973666 -0.18925056 0.15470749 0.056134753 0.09288631 -0.009427868 -0.039621074 0.19670421 0.08290967 -0.19674458 0.100066744 -0.27999943 -0.10346617 -0.29568616 0.09081628 -0.11748585 0.34396854 -0.013894692 0.10895208 0.10339035 0.042073254 -0.09523198 -0.021831179 0.0075238505 0.15869302 0.04558223 -0.03541331 0.08146113 -0.056593806 0.096828096 -0.12104186 -0.20538168 0.12846375 0.07356392 0.09099341 -0.16360162 -0.17499012 -0.0033093244 0.16067384 0.15597561 -0.22997622 0.18551897 -0.044645946 -0.10959468 0.12305191 0.1340646 -0.22506288 0.20390952 0.052050907 0.20196967 -0.3359006 -0.1380783 -0.007775459 0.016583102 -0.08525434 0.054253757 0.28802 -0.2022136 -0.026949769 0.15904921
31 -0.20002991 -0.324826 0.20052424 -0.061591174 0.1657133 -0.16229285 0.2320696 -0.12342931 -0.18917455 0.039362244 -0.10251711 0.16771886 0.08313018 -0.16008583 -0.053581577 -0.2780013 -0.07210061 -0.21298654 0.059575062 -0.06995229 0.30721605 0.06206062 0.15053259 0.07331274 -0.0974802 -0.0885063 0.014282148 0.07358997 0.11516784 0.0990333 -0.03201881 0.11153988 -0.087173074 0.1486265 -0.082238786 -0.09955637 0.23833044 0.09482829 0.1208729 -0.17738742 -0.21918334 0.09446479 0.09460025 0.12119652 -0.12409233 0.14687084 -0.038630962 -0.14078899 -0.04053658 0.10748339 -0.072137564 0.19324516 0.036039606 0.14208879 -0.29568377 -0.16491292 -0.05973189 0.00022819564 -0.13938974 0.06666709 0.18879546 -0.11998409 -0.16264153 0.10191798
20 -0.18617861 -0.3310336 0.18066882 -0.079016775 0.14458792 -0.17551103 0.19960411 -0.052103832 -0.097680375 0.020151587 -0.09223964 0.16202436 0.08984524 -0.17289743 -0.007955509 -0.27371264 -0.084919445 -0.23571746 0.076554224 -0.0914974 0.31975457 0.034694422 0.14331111 0.07843772 -0.058056097 -0.07728895 0.01339272 0.05210215 0.13618092 0.07827313 -0.037277453 0.09631338 -0.0743626 0.1310103 -0.096639715 -0.13555367 0.21315005 0.08059588 0.10854362 -0.17441894 -0.21120708 0.05313134 0.11239786 0.13834357 -0.14698853 0.15977255 -0.038953587 -0.12598498 0.012968432 0.11019138 -0.12595464 0.18563671 0.046410475 0.16259821 -0.31841892 -0.14773895 -0.044030264 0.007083115 -0.13124646 0.07305235 0.22571735 -0.146991 -0.114117615 0.1198632
25 -0.21612766 -0.29254377 0.20595987 -0.053011227 0.17586935 -0.14029618 0.25582892 -0.21866564 -0.29500237 0.056834843 -0.13149819 0.12775579 0.0742472 -0.12647437 -0.13308328 -0.26426017 -0.040311497 -0.18661788 0.05747342 -0.024840895 0.3110856 0.100719646 0.18279366 0.06889052 -0.17663506 -0.11356845 0.027454818 0.075354606 0.09061467 0.14570656 -0.011007225 0.11489911 -0.08608284 0.15949206 -0.0932437 -0.073190615 0.3002627 0.13317527 0.11963662 -0.17916264 -0.24276564 0.13784388 0.04755953 0.096200466 -0.083995596 0.16349417 -0.033284526 -0.141732 -0.10331032 0.08665542 -0.0070859618 0.20568599 0.04237314 0.1081853 -0.2942926 -0.17846934 -0.06870269 -0.022688642 -0.16175126 0.09400825 0.12813646 -0.07630928 -0.20820804 0.101819426
26 -0.19905265 -0.2790813 0.20417395 -0.050448406 0.17945203 -0.13829646 0.25086135 -0.20373471 -0.29248932 0.04838208 -0.1231281 0.11588856 0.07621472 -0.13051079 -0.12628321 -0.24157408 -0.038064558 -0.17772007 0.053200662 -0.02675418 0.3007306 0.097391814 0.17570612 0.065531604 -0.17439762 -0.10954993 0.015881367 0.067871585 0.091465555 0.14535144 -0.008296236 0.10995372 -0.07957676 0.15283123 -0.0946452 -0.08155467 0.29896402 0.120972455 0.1155535 -0.1720513 -0.22494744 0.11846032 0.04720708 0.09700552 -0.09315322 0.16140026 -0.045207422 -0.14398831 -0.1049075 0.09384434 -0.0016291419 0.20193125 0.037509933 0.099658415 -0.28571507 -0.17433043 -0.06504802 -0.012573368 -0.16523637 0.08748111 0.13329726 -0.08422746 -0.19993116 0.11036777
11 -0.1612689 -0.3670457 0.13915153 -0.09317877 0.12318444 -0.19028647 0.13575582 0.07807646 0.09642971 -0.01500534 -0.04760128 0.19181523 0.08325025 -0.19704585 0.10807669 -0.28139997 -0.1033312 -0.29138297 0.09475816 -0.12996882 0.34393966 -0.021604825 0.1208442 0.10026564 0.040509395 -0.091030754 -0.025487289 0.013943207 0.15425664 0.040667716 -0.029416522 0.08016407 -0.05259983 0.08512979 -0.120472014 -0.19376987 0.128808 0.06881804 0.0878388 -0.15986322 -0.1758805 0.0022415193 0.17730972 0.16044815 -0.22259182 0.1882079 -0.040177908 -0.10067214 0.12204627 0.14098188 -0.21978588 0.19668597 0.04292405 0.2144975 -0.3391966 -0.13454624 -0.0078017088 0.03006099 -0.09635852 0.06390468 0.29398608 -0.206779 -0.01942177 0.15709327
13 -0.17311329 -0.33878797 0.17364918 -0.09363762 0.14516608 -0.1808386 0.18562077 -0.037097774 -0.055172592 0.024405587 -0.08078006 0.16739158 0.09241771 -0.19237459 0.016131697 -0.27843186 -0.090244725 -0.25974646 0.084058024 -0.098579116 0.34500748 0.027552765 0.12919496 0.08981349 -0.051375147 -0.09041431 0.0067316736 0.05370105 0.15347828 0.085729115 -0.037749477 0.09935818 -0.07379638 0.12523577 -0.117984176 -0.16959682 0.2000896 0.09786172 0.11354609 -0.17483665 -0.20080166 0.0411106 0.128845 0.14944649 -0.17635693 0.18679062 -0.04962095 -0.12874874 0.032828577 0.12922713 -0.15571581 0.20351203 0.04712409 0.19053221 -0.34532428 -0.15393618 -0.04073356 0.009130553 -0.115655914 0.066125475 0.24951072 -0.16408636 -0.10779941 0.12685461
22 -0.17486416 -0.34697136 0.17036091 -0.08800812 0.14982715 -0.18632959 0.18122038 -0.02280346 -0.055093024 0.0127484575 -0.08253398 0.18235528 0.09659744 -0.19404122 0.026118962 -0.29147306 -0.09163942 -0.26175573 0.09325718 -0.090570696 0.34538883 0.025475107 0.14602606 0.0884076 -0.0399188 -0.080053695 -0.005174284 0.040922336 0.15465167 0.08004313 -0.035977 0.0917276 -0.08180518 0.12937008 -0.1161889 -0.16789941 0.1836027 0.07882445 0.10936559 -0.17533204 -0.20052141 0.03563552 0.13395418 0.15799116 -0.1737729 0.18225195 -0.060122963 -0.12686914 0.048401374 0.12049385 -0.1556557 0.19013695 0.039746564 0.19225778 -0.3356803 -0.14459579 -0.02770487 0.022100426 -0.11666184 0.06619934 0.25297374 -0.16787839 -0.09589619 0.13843831
23 -0.21704128 -0.29432634 0.21095657 -0.051973548 0.18322565 -0.13912271 0.257788 -0.18727835 -0.29084218 0.051656283 -0.13583705 0.14201327 0.07325729 -0.14324448 -0.12661885 -0.26238385 -0.051966477 -0.18128164 0.053839408 -0.039273668 0.30007204 0.097743146 0.16824302 0.06491457 -0.162241 -0.09792638 0.022531036 0.08147024 0.095155485 0.13421343 -0.025222376 0.11535897 -0.097740114 0.17073378 -0.08760203 -0.07891063 0.29998645 0.11036476 0.12197531 -0.17667004 -0.24140884 0.12924556 0.0704969 0.115869686 -0.080365844 0.13793875 -0.034109496 -0.14739007 -0.11089367 0.09430869 -0.0023197974 0.18962969 0.042427573 0.11098211 -0.2936628 -0.18322201 -0.086022854 -0.001475042 -0.15613802 0.076157786 0.14241756 -0.09323237 -0.2051197 0.095440745
17 -0.15187389 -0.38475388 0.13214558 -0.09387331 0.104549125 -0.19943437 0.14867903 0.092578016 0.13503702 -0.0011544015 -0.03888274 0.21190253 0.09553963 -0.20370948 0.11821028 -0.27608666 -0.10613745 -0.32299775 0.09303595 -0.12634137 0.35522074 -0.04183581 0.122856595 0.09643206 0.07177474 -0.09083256 -0.031648487 -0.00024555542 0.16416492 0.048458073 -0.024767935 0.07857766 -0.042775467 0.0749849 -0.13219939 -0.21989492 0.1092508 0.072282754 0.08006075 -0.16003719 -0.18059261 -0.01768512 0.17169216 0.16761361 -0.24449803 0.1910918 -0.038835216 -0.096670285 0.1517 0.15028417 -0.24967095 0.19954115 0.044252858 0.21046636 -0.3328111 -0.13355671 -0.013415203 0.030610826 -0.06576146 0.04851101 0.31024307 -0.20916082 -0.0003742535 0.15650532
18 -0.16238071 -0.36798468 0.1439684 -0.10327042 0.13461691 -0.196356 0.14777343 0.05074851 0.059065793 0.0079087475 -0.057449162 0.19815736 0.101868495 -0.2072664 0.08161282 -0.29674372 -0.10265103 -0.2866031 0.09420035 -0.10905305 0.36035377 -0.008825035 0.13181788 0.09861638 0.026727103 -0.07938896 -0.013008475 0.02690346 0.17078172 0.058744196 -0.036139913 0.090906456 -0.060064085 0.11196298 -0.12392767 -0.20167454 0.13762563 0.071151435 0.10356919 -0.16153207 -0.19008604 0.010680874 0.15464932 0.15864286 -0.21415272 0.19275825 -0.06114627 -0.11569073 0.11034798 0.12980005 -0.21489285 0.1875214 0.053210538 0.22144145 -0.35057005 -0.124739744 -0.011194276 0.013556037 -0.10189483 0.061617646 0.29047307 -0.20292522 -0.047131002 0.14572284
27 -0.21293548 -0.30398896 0.20795639 -0.055997033 0.18440826 -0.13505042 0.268745 -0.19320847 -0.30561602 0.05836832 -0.13603325 0.13796173 0.066173345 -0.12499311 -0.12637457 -0.26576367 -0.04121437 -0.18856558 0.045670167 -0.051532738 0.30124584 0.10251736 0.17763653 0.06273982 -0.16371116 -0.10748873 0.020082459 0.08988482 0.09318507 0.13349147 -0.016620373 0.10645533 -0.09360235 0.16308421 -0.070264615 -0.071638286 0.2894437 0.11517671 0.11998935 -0.18016209 -0.24492195 0.13225317 0.060037147 0.10638942 -0.07899966 0.14140695 -0.01805649 -0.15440866 -0.10843709 0.098221086 0.006054553 0.19543673 0.029442033 0.11279827 -0.28173846 -0.1823706 -0.08556951 -0.0020372558 -0.14279671 0.08519483 0.12981077 -0.07422623 -0.21588908 0.09168988
16 -0.21158586 -0.31445226 0.20711127 -0.06476686 0.17407422 -0.15477863 0.24774434 -0.14669237 -0.22078519 0.044634786 -0.12187966 0.15920502 0.06987757 -0.1423155 -0.07314561 -0.2752107 -0.06837265 -0.2145679 0.04854842 -0.07060735 0.30316687 0.08147114 0.1635953 0.064526305 -0.11967927 -0.09266097 0.023038357 0.07679748 0.110244095 0.10156296 -0.03408697 0.113140374 -0.09223917 0.14977336 -0.08021468 -0.09214562 0.26977354 0.099113345 0.11975372 -0.18413523 -0.23209375 0.10966646 0.09365392 0.12322273 -0.10667425 0.13908787 -0.02734817 -0.13888122 -0.069031246 0.1120763 -0.039069545 0.19244452 0.037160963 0.13936274 -0.29374605 -0.16772361 -0.07027113 0.0079679135 -0.14089076 0.067816675 0.17310014 -0.11942641 -0.1803868 0.09319166
10 -0.19638988 -0.29957747 0.19052741 -0.060768276 0.1693 -0.14122742 0.23143694 -0.13789338 -0.2009456 0.033803463 -0.10583568 0.15006392 0.06946829 -0.14116128 -0.07715072 -0.25403142 -0.05861105 -0.19293928 0.05519423 -0.057480983 0.3017097 0.07235296 0.15746269 0.073024265 -0.12625629 -0.092973396 0.021380547 0.064371996 0.110661075 0.10191338 -0.03096069 0.09837111 -0.081074305 0.15535456 -0.09224111 -0.098319754 0.25971094 0.09507405 0.11310748 -0.17321174 -0.22223686 0.09462885 0.08878578 0.122492544 -0.10058929 0.15345559 -0.027523998 -0.14108011 -0.05025564 0.09041074 -0.047756527 0.18730533 0.04397856 0.12718903 -0.29397535 -0.15362105 -0.05943072 -0.0051712384 -0.14444035 0.081343286 0.1679103 -0.10791026 -0.17670752 0.10470473
21 -0.21635343 -0.31463185 0.20393586 -0.07267449 0.16728885 -0.16027783 0.24100217 -0.14648676 -0.21484284 0.0525489 -0.1151166 0.16396943 0.082529224 -0.16355722 -0.074934535 -0.28091782 -0.065123424 -0.21835482 0.0622498 -0.06396748 0.32970932 0.07585258 0.16828625 0.073863305 -0.11962371 -0.09851204 0.017995676 0.07501712 0.12103241 0.112007774 -0.021181077 0.10988356 -0.08814925 0.15998207 -0.09349923 -0.10920349 0.25544268 0.114285775 0.12850177 -0.16980134 -0.24048215 0.109474085 0.082117155 0.11979559 -0.1235517 0.15617162 -0.033967853 -0.14613219 -0.05211589 0.10276701 -0.046941414 0.20022379 0.043094143 0.13399099 -0.3063378 -0.16567613 -0.06945231 -0.00506621 -0.14458175 0.08593371 0.17371817 -0.11284556 -0.1748942 0.11404267
19 -0.21084686 -0.32578462 0.21976647 -0.07130359 0.18208243 -0.15886983 0.25294217 -0.16668162 -0.24135667 0.04993406 -0.13063124 0.16810927 0.08143905 -0.15849404 -0.0928714 -0.28747207 -0.07196039 -0.21909164 0.065721795 -0.05470569 0.3302666 0.08025382 0.17722087 0.07164834 -0.14097434 -0.092494205 0.01924798 0.081461936 0.119159564 0.11645521 -0.025492588 0.12016755 -0.092645854 0.16100729 -0.090972945 -0.09890875 0.2708424 0.116666645 0.13794921 -0.17463855 -0.24181695 0.11228058 0.08348876 0.12058818 -0.10485539 0.15790568 -0.033680197 -0.1626468 -0.07430016 0.10425708 -0.045391347 0.19751655 0.03524972 0.1353587 -0.30795175 -0.17011413 -0.079486705 0.0026897783 -0.14191662 0.083697274 0.17180662 -0.11410737 -0.19010599 0.111379996
15 -0.21636014 -0.30272534 0.20996727 -0.06203415 0.17486675 -0.13653754 0.24862453 -0.16938102 -0.2480243 0.044386692 -0.11443379 0.14813116 0.072307244 -0.1350306 -0.09072326 -0.26725504 -0.06312291 -0.19359685 0.043722708 -0.061648898 0.30048966 0.088480115 0.16367567 0.061660487 -0.1413745 -0.090442754 0.016555052 0.078862384 0.10824944 0.103860855 -0.031009365 0.11337413 -0.08211268 0.158664 -0.07428004 -0.0803564 0.2618835 0.104127556 0.13164371 -0.1617404 -0.23450367 0.1130269 0.0734253 0.11306835 -0.08902134 0.14286205 -0.038331263 -0.1502543 -0.08384677 0.09069355 -0.025818989 0.18432774 0.03751465 0.12380169 -0.2932209 -0.17539726 -0.08382804 -0.009923682 -0.14006731 0.084955074 0.16061343 -0.09016514 -0.19011517 0.089426026
12 -0.17162478 -0.34623852 0.15300488 -0.094463415 0.12627856 -0.17969455 0.15758654 0.0027971808 0.00091590965 0.012795164 -0.054144762 0.18124884 0.08591641 -0.18198426 0.04879284 -0.2636756 -0.09415283 -0.25884277 0.09029326 -0.109910846 0.33128735 0.013279573 0.12655163 0.08737115 -0.012832147 -0.090617895 -0.0038301358 0.03471971 0.15226804 0.064087905 -0.02930141 0.0909009 -0.07144474 0.113130406 -0.11493857 -0.16905859 0.1570989 0.08264796 0.102114126 -0.16342473 -0.19125862 0.022621311 0.1452855 0.14532816 -0.1946219 0.18478863 -0.044913564 -0.11875926 0.06889685 0.12261933 -0.17990461 0.19612193 0.04160015 0.18754593 -0.3393226 -0.14457542 -0.0205703 0.015404559 -0.10666403 0.07055276 0.2632788 -0.17036116 -0.075912945 0.14166945
