34 128
34 -0.034979425 -0.12270799 0.07456486 0.05839063 0.06325959 -0.022292322 0.13399892 -0.12593342 -0.12111045 0.04512858 -0.07159457 0.1712718 0.04787831 -0.18067071 -0.067018665 -0.0979508 -0.01118575 -0.073462576 0.025918273 0.09593502 0.18937275 0.039481178 0.12565987 0.07656855 -0.15371162 -0.055241562 -0.0943124 -0.024666714 -0.00912134 0.212495 -0.009001074 0.101881504 -0.11277941 0.13562617 -0.2477602 -0.08913264 0.25258458 0.02260236 0.008697743 -0.1965186 -0.19905259 0.16866007 0.07681991 0.17194757 -0.028907878 0.21530397 -0.07701864 -0.035167392 -0.0395698 -4.1876367e-05 -0.019423291 0.1677405 -0.0045804293 0.11080823 -0.22737697 -0.06715209 -0.055826146 0.03592913 -0.07754314 0.032684416 0.12822393 -0.124507554 -0.12343077 0.14581043 -0.08296691 -0.15323862 -0.111281544 -0.02211269 0.0800244 -0.02612916 -0.035738297 0.06460656 -0.07488209 0.057278495 0.026268557 0.0648077 0.016633864 0.08289339 0.040380396 0.06783117 -0.12088604 -0.13200134 0.09090205 -0.14026308 -0.08540538 0.26893854 -0.14148057 -0.04826444 -0.011286223 -0.09424554 0.08386429 0.13084112 0.11376449 -0.14791031 -0.037457474 0.31977206 -0.1411682 0.10915212 0.02558095 -0.15037218 -0.22103259 0.11900125 -0.13350679 -0.064914025 0.0057626865 0.06759551 0.26732463 0.09915664 -0.046234895 0.032781836 0.063674964 -0.15848178 -0.034806788 -0.0038586382 -0.061609115 -0.011891137 -0.14948979 0.15282218 -0.101830065 0.079031 -0.06694089 -0.26739335 0.033797212 -0.14568363 0.11747858 0.07669704 -0.018022541 0.10920176
1 -0.046042778 -0.3557255 0.0011527664 0.06057735 0.11066469 -0.09543284 0.13564017 0.033181738 0.08271686 -0.023822019 -0.048401546 0.20288013 0.014903144 -0.21592806 0.072924204 -0.1463307 -0.053881817 -0.14014634 0.024797274 0.03277198 0.29144824 0.0047471686 0.075329356 0.056952488 -0.05348483 -0.06941699 -0.0778096 -0.039406 0.008708408 0.096605256 -0.01789914 0.03885773 -0.05780902 0.08714225 -0.17336082 -0.1190944 0.17035851 0.038369283 -0.016093805 -0.12714997 -0.108419836 0.043511424 0.13065031 0.17665388 -0.103302434 0.17812838 -0.0076277717 -0.052614972 0.051696315 0.023805292 -0.13287656 0.15944514 0.016428294 0.08839502 -0.20774849 -0.077534325 -0.033949558 0.079549946 -0.0047061564 -0.0155123 0.18696094 -0.17569497 -0.019947056 0.18455091 -0.13634571 -0.0025365879 -0.06940264 -0.004887445 0.0981075 -0.11227925 -0.08851877 0.059779484 -0.07996207 0.0035514387 0.1215809 0.10006301 0.08533491 0.039482135 -0.015481911 -0.12681939 -0.17457668 -0.053872474 0.04138949 -0.06846044 -0.16408278 0.055138025 0.028830923 -0.056569498 0.07555682 -0.022380542 0.21796446 0.02374929 0.14906499 -0.07213701 -0.07747348 0.20232934 -0.09679156 -0.13220142 0.08834856 0.025466409 -0.14323 0.05974385 -0.15790673 -0.039733123 -0.07450303 0.010810419 0.2047522 0.08983088 -0.07402095 -0.042559657 0.0018526736 -0.054596767 -0.0030718925 -0.0069682393 -0.11418226 0.022591073 -0.05907246 0.1260983 -0.14072658 -0.011867791 -0.0346332 -0.15358682 0.12957087 -0.1724095 -0.04985405 -0.0667732 0.012180443 0.13300811
33 -0.032474034 -0.099257566 0.088155866 0.05780465 0.063290685 -0.01914319 0.1317234 -0.14272031 -0.14916515 0.056084067 -0.07531269 0.17140126 0.05605712 -0.19089542 -0.082012914 -0.09391089 -0.011434179 -0.05607741 0.022735974 0.103416376 0.18436022 0.047002792 0.13530794 0.08015783 -0.18098934 -0.045293394 -0.10144205 -0.016821943 -0.0049261395 0.23486456 -0.014950012 0.11707569 -0.12626615 0.15788275 -0.27514705 -0.09606156 0.2653877 0.013343714 0.010424339 -0.20742236 -0.21798922 0.18814494 0.07121597 0.17490506 -0.013657369 0.2335188 -0.09671979 -0.036555316 -0.05879322 -0.009673514 -0.009268559 0.16900133 -0.002018072 0.116480164 -0.24745394 -0.05711214 -0.063496046 0.03399014 -0.08929482 0.048680477 0.12951244 -0.12926657 -0.14281176 0.14121293 -0.069680125 -0.1761132 -0.10873924 -0.027808145 0.07609106 -0.005942015 -0.023481103 0.06302678 -0.06296892 0.06658602 0.008202488 0.06825115 0.018326666 0.08502252 0.053812742 0.09273067 -0.10814627 -0.1552506 0.09326509 -0.16072573 -0.07930015 0.310937 -0.17126463 -0.054206647 -0.020253751 -0.1073519 0.075976916 0.15171628 0.10746485 -0.17019165 -0.032207936 0.34556463 -0.1586141 0.13759322 0.022768369 -0.17602932 -0.24175856 0.11878959 -0.13112898 -0.05824583 0.024265 0.06978684 0.28125766 0.106797375 -0.043152645 0.03779862 0.06646152 -0.17899925 -0.037097182 -0.011718595 -0.05528867 -0.017206248 -0.1658395 0.152777 -0.10722116 0.0858237 -0.07015991 -0.2872409 0.018790537 -0.14456859 0.15462749 0.09396486 -0.028010977 0.10043248
3 -0.040579006 -0.24140927 0.032566026 0.05539847 0.08832996 -0.05955163 0.13253728 -0.03444553 -0.009133708 0.005749319 -0.053510353 0.19143923 0.022931188 -0.20981877 0.011889707 -0.13029712 -0.03404933 -0.10999601 0.022189502 0.05731598 0.23853278 0.02406957 0.09221254 0.068302825 -0.09460054 -0.061398834 -0.085199125 -0.029008135 0.007175039 0.15249607 -0.017295608 0.062172115 -0.087978385 0.11800339 -0.20666346 -0.111791305 0.20544183 0.031642508 -0.004512711 -0.15031439 -0.14515136 0.09245743 0.10617577 0.17749777 -0.07044302 0.1952875 -0.035794582 -0.049825314 0.0053642294 0.011550897 -0.07943536 0.15506831 0.006388424 0.09868492 -0.21981198 -0.07259533 -0.046374455 0.059793536 -0.0381273 0.0105483495 0.1543081 -0.15059644 -0.066186965 0.16759995 -0.10777946 -0.06915848 -0.07861648 -0.012164884 0.08869878 -0.0767685 -0.060727037 0.06154082 -0.073916055 0.028603442 0.08194041 0.08450312 0.06250399 0.054859858 0.01222262 -0.043186627 -0.14985895 -0.086445056 0.056828767 -0.10176662 -0.13042596 0.15125984 -0.044594575 -0.054025706 0.03497837 -0.056971386 0.16075486 0.07203174 0.13053763 -0.10512895 -0.067874335 0.25514233 -0.123064585 -0.02570224 0.06587687 -0.047925565 -0.18235767 0.079304196 -0.15100394 -0.05034784 -0.036020342 0.034846097 0.22844689 0.093936 -0.06254836 -0.016283829 0.030084025 -0.099935606 -0.014204497 -0.010380694 -0.09001427 0.011268531 -0.10039155 0.13823396 -0.1208727 0.027767327 -0.05137285 -0.2067245 0.085272476 -0.16124523 0.023617584 -0.003748139 0.00081720215 0.12159803
2 -0.0373117 -0.30132136 0.013597778 0.058521908 0.09857303 -0.0750169 0.13792211 -0.0037947814 0.030281456 -0.0068189614 -0.054082632 0.2033972 0.022984661 -0.21555202 0.041707136 -0.13824624 -0.04835439 -0.120397165 0.021888815 0.0495473 0.26591134 0.014608187 0.08857619 0.061576888 -0.0812587 -0.06616082 -0.086604185 -0.03934394 0.008191581 0.13020177 -0.009625286 0.050273273 -0.075298786 0.105304815 -0.19678716 -0.11343054 0.19383033 0.032327026 -0.011503135 -0.14160368 -0.12801433 0.07577491 0.11682901 0.1764268 -0.08722704 0.19323395 -0.02609857 -0.05136864 0.02974898 0.012669001 -0.105150945 0.15349501 0.015343511 0.09596833 -0.21923083 -0.07442751 -0.03748407 0.07016608 -0.021901222 -0.00054159755 0.17134298 -0.16155425 -0.04285059 0.17459777 -0.121043615 -0.0339566 -0.07691744 -0.013173064 0.094061315 -0.092562504 -0.077957705 0.06302336 -0.07678914 0.01594838 0.10219369 0.09859546 0.070576966 0.05039585 -0.0021858052 -0.08320352 -0.16671276 -0.07158915 0.049858544 -0.08399101 -0.14616461 0.11202205 -0.0097330045 -0.05750944 0.056561 -0.04348977 0.19327869 0.050710965 0.14101803 -0.094396874 -0.074923344 0.23318256 -0.11139597 -0.077092014 0.072679766 -0.013263262 -0.16004479 0.06700171 -0.15503009 -0.046397608 -0.055795617 0.016554758 0.22029442 0.09439643 -0.070285894 -0.02760962 0.014363706 -0.07585621 -0.008275735 -0.011583928 -0.105853625 0.01571295 -0.081766956 0.13150828 -0.13282213 0.008586617 -0.043289356 -0.18483868 0.11098711 -0.17077263 -0.007906883 -0.032406624 0.010983826 0.12549883
4 -0.03948932 -0.27682748 0.023183076 0.061182886 0.09966169 -0.0740933 0.13365202 -0.016178498 0.015310813 -0.002758589 -0.05168213 0.199623 0.026570942 -0.21094954 0.028050544 -0.13287158 -0.041719817 -0.11689899 0.02467712 0.057827663 0.256524 0.01673229 0.08762438 0.06257395 -0.0875629 -0.060915675 -0.086321875 -0.03327572 0.009083442 0.13783269 -0.017186258 0.054634795 -0.08014012 0.110706955 -0.20437466 -0.11470836 0.20172083 0.034648143 -0.0081610065 -0.14542922 -0.1354515 0.08092885 0.11360259 0.1796528 -0.07382283 0.19286986 -0.03245706 -0.052256335 0.016913101 0.009429763 -0.09293322 0.15219316 0.01359203 0.09672947 -0.22156164 -0.07048598 -0.039826334 0.06506403 -0.025642853 -0.00018871884 0.17065291 -0.1613505 -0.05225918 0.17223078 -0.112333536 -0.04792765 -0.08249804 -0.012208976 0.09352075 -0.083006665 -0.0699985 0.06242845 -0.072610475 0.018593585 0.09480454 0.09145229 0.06929407 0.055685643 0.0030528794 -0.06201687 -0.15712169 -0.08519988 0.05517637 -0.09401051 -0.13935944 0.1294275 -0.02149478 -0.059876073 0.049323585 -0.047727644 0.17504965 0.058347132 0.1330286 -0.10188721 -0.070763 0.24627373 -0.120850354 -0.055564288 0.071185775 -0.031085897 -0.17403737 0.07456376 -0.14857394 -0.041597467 -0.050218042 0.02665075 0.2210894 0.0950484 -0.06846903 -0.023221675 0.024295237 -0.09038458 -0.0106710475 -0.009475514 -0.09801567 0.016268622 -0.09005869 0.13486835 -0.12907052 0.017024798 -0.04283153 -0.19229366 0.09508522 -0.16933526 0.00500052 -0.018825194 0.006079695 0.12482449
32 -0.03181692 -0.15634483 0.049139343 0.052377135 0.0667101 -0.033301797 0.12525374 -0.09208016 -0.08227427 0.0315499 -0.06247175 0.16920228 0.040548358 -0.17633414 -0.03837376 -0.09431507 -0.018985532 -0.08067605 0.019372473 0.08231872 0.19890097 0.03539052 0.10382534 0.07010138 -0.13377917 -0.050485052 -0.091490105 -0.023087375 -0.0028377774 0.18025115 -0.011836316 0.0824663 -0.09167968 0.12380364 -0.22826484 -0.0935352 0.22459394 0.02243132 0.0010143508 -0.17894351 -0.17214508 0.13538805 0.07360405 0.16050759 -0.039847765 0.20090264 -0.064166315 -0.029716676 -0.02244684 -0.0048536705 -0.037995074 0.15248911 -0.0029349837 0.098894194 -0.2117953 -0.060768705 -0.046426628 0.041957363 -0.06292639 0.02256801 0.1327251 -0.12738526 -0.09781225 0.14748418 -0.09064222 -0.115211956 -0.09898367 -0.014756132 0.07735348 -0.037399776 -0.047309052 0.06483312 -0.06737327 0.041482847 0.039764054 0.07393125 0.02770094 0.06860306 0.030405283 0.029092992 -0.123421036 -0.1112682 0.081438765 -0.11464491 -0.0928284 0.21829784 -0.10364134 -0.048437424 0.008474359 -0.08224698 0.10434208 0.105176106 0.11430492 -0.12985364 -0.03829871 0.27719626 -0.12555254 0.061779663 0.03186196 -0.11547728 -0.19147253 0.09445873 -0.12770969 -0.052443348 -0.0013326068 0.05868815 0.23961122 0.0897305 -0.05084079 0.022792801 0.04664575 -0.1364353 -0.02315694 -0.0028481078 -0.063022204 -0.004767058 -0.12630358 0.13408008 -0.094028115 0.05242151 -0.057158243 -0.23443508 0.042545453 -0.13998306 0.09389037 0.042102087 -0.018901981 0.104229935
14 -0.041139994 -0.26366165 0.0375891 0.05428699 0.095247224 -0.06229794 0.13413034 -0.037787493 -0.010159718 0.009531818 -0.064416565 0.1994102 0.028359566 -0.21271203 0.013094259 -0.12783231 -0.036932133 -0.10763515 0.026773341 0.060215663 0.2476398 0.025759688 0.09540696 0.066483535 -0.10175713 -0.055415016 -0.0805881 -0.028625878 0.00046901678 0.15244214 -0.0128297815 0.06546175 -0.08665945 0.11776108 -0.20427443 -0.11018076 0.20217314 0.0279688 -0.005791243 -0.15061192 -0.14773501 0.094646856 0.105698615 0.17633551 -0.06541203 0.19664387 -0.039685126 -0.044941675 0.009758756 0.012451076 -0.08383916 0.15117952 0.010615923 0.09934455 -0.21698305 -0.06960644 -0.047201656 0.06223395 -0.039798617 0.0055454224 0.15636407 -0.15388946 -0.06132475 0.15876095 -0.10700228 -0.062774085 -0.07775822 -0.019418687 0.087544225 -0.07222157 -0.064640194 0.06119529 -0.07213881 0.029942974 0.08250804 0.086918734 0.059613608 0.05665772 0.009018402 -0.045967247 -0.15143979 -0.09026648 0.05988976 -0.09941335 -0.1336453 0.15455799 -0.04575232 -0.05720965 0.038495656 -0.05556004 0.16160804 0.068735614 0.12930794 -0.10898308 -0.06717536 0.2545222 -0.1233433 -0.024441414 0.0654813 -0.04738604 -0.17885812 0.07807515 -0.14620543 -0.04456941 -0.04064588 0.031489626 0.22995165 0.09810116 -0.06725299 -0.016735265 0.02200722 -0.10190613 -0.016542818 -0.0075520845 -0.088224486 0.0070843124 -0.100033216 0.13387942 -0.12601934 0.028024083 -0.04762311 -0.2028251 0.084323876 -0.16126886 0.028751494 -0.005189958 -0.0011033532 0.11651132
24 -0.0271855 -0.12849836 0.07322113 0.060973708 0.06400417 -0.026630314 0.13066585 -0.11928538 -0.1123885 0.044022497 -0.0638551 0.17088084 0.05033791 -0.1856457 -0.059322216 -0.1010189 -0.018816775 -0.07684623 0.026726156 0.09143278 0.19208789 0.038474675 0.12021017 0.08077074 -0.14815022 -0.047758635 -0.094593465 -0.027606385 -0.009212524 0.20798886 -0.014618099 0.09593847 -0.11177309 0.12902802 -0.2418939 -0.09004093 0.2443141 0.017002542 0.006006979 -0.1968395 -0.18693855 0.16280839 0.07120395 0.16559641 -0.027498413 0.21615182 -0.07998602 -0.028915087 -0.03529934 -0.0043210066 -0.018896973 0.16098988 -0.008987793 0.1063255 -0.21508138 -0.056387078 -0.046644147 0.03732367 -0.074514866 0.030158572 0.12694779 -0.12387338 -0.11122037 0.14040516 -0.08646186 -0.1448918 -0.10678243 -0.01834029 0.072244324 -0.021493828 -0.032947987 0.064421445 -0.07416327 0.054829605 0.028447261 0.06488009 0.016095925 0.07353162 0.03846518 0.063116565 -0.11439257 -0.12267628 0.08639444 -0.12916295 -0.08647274 0.25140515 -0.13731037 -0.04605004 -0.0034180454 -0.09274548 0.08587535 0.12567051 0.11497323 -0.14474726 -0.03374068 0.31361905 -0.13489525 0.098396 0.028287806 -0.1429159 -0.2155552 0.114533 -0.12480849 -0.055686697 0.0038832636 0.06644897 0.2578549 0.10037686 -0.04224338 0.03327706 0.058854945 -0.15552846 -0.03200461 -0.006467585 -0.06530093 -0.010362746 -0.14371888 0.1404424 -0.09815474 0.07349225 -0.062130477 -0.2584778 0.03319121 -0.14709051 0.11876203 0.07326262 -0.019723747 0.105498575
6 -0.043467715 -0.47162452 -0.041800417 0.07498668 0.13384207 -0.12261883 0.1528807 0.10757895 0.18737206 -0.059566528 -0.03151643 0.23393369 -0.014943687 -0.23887394 0.15439035 -0.16963693 -0.081475906 -0.1906709 0.021200363 -0.00030718243 0.3445283 -0.01810639 0.04627439 0.04732011 0.0058416543 -0.092821926 -0.07760891 -0.06560714 0.01278609 0.051701255 -0.0121002 -0.00036634313 -0.03071342 0.058021203 -0.13709393 -0.13733807 0.14777216 0.061603077 -0.04256463 -0.098233685 -0.065201506 -0.01016088 0.16640402 0.18358566 -0.15196209 0.17523602 0.043684267 -0.07002815 0.09861115 0.04439811 -0.1916099 0.1680355 0.021523893 0.07263019 -0.19679883 -0.098708145 -0.027291201 0.09769734 0.04904441 -0.05252086 0.22717604 -0.20058465 0.038074788 0.22009687 -0.16985312 0.06381883 -0.05618958 0.0039586206 0.119564116 -0.1729419 -0.11742018 0.067043446 -0.10760691 -0.015412718 0.18831004 0.12303891 0.1174301 0.027610851 -0.05282437 -0.22891088 -0.21458693 0.0026757247 0.02518714 -0.023291793 -0.210085 -0.053598545 0.12625493 -0.062242508 0.11532911 0.01076795 0.29912892 -0.02794434 0.17789753 -0.025733931 -0.10384038 0.1635074 -0.07345215 -0.26205385 0.12717904 0.11102152 -0.10637474 0.031852104 -0.19044162 -0.033937916 -0.13050126 -0.022016976 0.17649229 0.08709231 -0.0827743 -0.08504695 -0.016408164 0.007278899 0.008186592 -0.013290516 -0.1442072 0.05385771 -0.020622373 0.11709816 -0.16043434 -0.051662084 -0.0183001 -0.10658249 0.20017691 -0.20025142 -0.15243 -0.13823664 0.03987252 0.1525962
28 -0.0315204 -0.09340326 0.08753688 0.055695985 0.054994423 -0.011051314 0.13007061 -0.15330291 -0.15603055 0.05482338 -0.07165457 0.1644146 0.05719813 -0.17056446 -0.0919418 -0.086621255 -0.007802322 -0.06500569 0.02843405 0.10835137 0.17458005 0.04517476 0.12988853 0.083368585 -0.17184258 -0.044854354 -0.10127175 -0.0206657 -0.010801935 0.22611852 -0.010172482 0.1116825 -0.11247719 0.13787761 -0.25759897 -0.08679826 0.25513625 0.015931875 0.012520337 -0.21081628 -0.20595287 0.1784425 0.059599802 0.16284911 -0.016166223 0.21782908 -0.09922238 -0.023695337 -0.0574561 -0.009064859 -0.003335975 0.16345358 -0.010383608 0.10295375 -0.21561597 -0.056168154 -0.05399322 0.027196461 -0.09519388 0.041190006 0.11543552 -0.11748505 -0.1278344 0.13455178 -0.07470587 -0.17158587 -0.11561288 -0.018301573 0.06560722 -0.008425802 -0.027408449 0.067767665 -0.07271062 0.060495544 0.0063804807 0.057793316 0.0022195722 0.087568894 0.047248352 0.09978651 -0.1070492 -0.14334768 0.10042281 -0.14215218 -0.06673107 0.29680333 -0.17023261 -0.042592566 -0.021335186 -0.10676078 0.058970988 0.14398888 0.103857085 -0.15956342 -0.019085556 0.32374483 -0.14290947 0.14994119 0.015035361 -0.18006893 -0.2263693 0.12768166 -0.119810715 -0.062943906 0.026995914 0.082461186 0.27104458 0.10425299 -0.03397966 0.047385965 0.065208845 -0.17563297 -0.041141048 -0.0037822612 -0.047987886 -0.022860968 -0.16091533 0.14068052 -0.08635262 0.08246036 -0.06803362 -0.27597427 0.0070897625 -0.13539107 0.14937168 0.0959577 -0.029675065 0.09739118
8 -0.039957356 -0.31492633 0.01544322 0.061928958 0.1002447 -0.0786718 0.13975342 0.00055184873 0.040248048 -0.0052631847 -0.055476937 0.20600809 0.018227626 -0.21658848 0.050152797 -0.14105467 -0.046058316 -0.12577473 0.027495181 0.052100368 0.26963666 0.012235506 0.085142605 0.05705676 -0.07516703 -0.060970232 -0.08331871 -0.03642745 0.0062359413 0.12947738 -0.014974161 0.050407812 -0.071689904 0.107175276 -0.19569401 -0.119630195 0.19572365 0.035743013 -0.010146912 -0.13541992 -0.12888359 0.07004784 0.11579397 0.18235675 -0.086063206 0.19649024 -0.025031485 -0.053058423 0.030295637 0.017362 -0.11375258 0.15340203 0.020224385 0.09577433 -0.22083047 -0.07477694 -0.043657385 0.06800736 -0.01901498 -0.008377301 0.17448597 -0.17003486 -0.039206494 0.18055038 -0.11987633 -0.0357788 -0.07230645 -0.013734021 0.09823797 -0.09729277 -0.08213038 0.060890917 -0.08025912 0.0149625745 0.106214374 0.09920675 0.07051821 0.05036872 -0.004031475 -0.089529745 -0.16513003 -0.074273266 0.048752893 -0.08367035 -0.1554273 0.10806164 0.0004670475 -0.05839897 0.057970233 -0.041711293 0.19886403 0.04265982 0.14150314 -0.092065595 -0.07655372 0.2292616 -0.11344564 -0.08754832 0.07627627 -0.013269661 -0.1595066 0.06415649 -0.16247486 -0.043326803 -0.056038313 0.014476157 0.21902514 0.08881859 -0.07264381 -0.035019167 0.01087351 -0.07356123 -0.0056715324 -0.010440033 -0.10966287 0.021202747 -0.08157787 0.12985922 -0.13649382 0.0064513944 -0.042688247 -0.183231 0.116559416 -0.16880679 -0.013124007 -0.042144004 0.0114334095 0.124424435
9 -0.036091343 -0.19299993 0.043630768 0.05505696 0.0775594 -0.04515471 0.13116094 -0.068759486 -0.046204247 0.022403201 -0.06038013 0.18751085 0.036285046 -0.19895399 -0.01893999 -0.113926984 -0.03078083 -0.09088492 0.02145281 0.07536078 0.21799615 0.031503055 0.10893797 0.067225836 -0.1212906 -0.052996505 -0.091234535 -0.03322618 -0.0027762211 0.17520161 -0.012513924 0.08309569 -0.095950074 0.11929727 -0.21979783 -0.105320774 0.22435416 0.025306886 -0.004181061 -0.1661352 -0.16842201 0.119900994 0.09205486 0.17345951 -0.053550202 0.20192264 -0.0554323 -0.042384442 -0.013525288 0.0007431307 -0.059327945 0.15975975 0.0023509783 0.09974367 -0.21517302 -0.06654172 -0.05090182 0.048257925 -0.053239603 0.015377037 0.14684418 -0.14350976 -0.08782267 0.15854418 -0.09332122 -0.10228332 -0.088907234 -0.01717497 0.08281316 -0.052171398 -0.0489725 0.06468649 -0.06841797 0.036278505 0.060983814 0.07570339 0.039622728 0.06832955 0.018449366 0.0040872935 -0.1315536 -0.10475236 0.06741276 -0.117935 -0.114148594 0.19391926 -0.08288073 -0.05110881 0.015579569 -0.06872921 0.13252093 0.09127771 0.12542862 -0.11663206 -0.05181946 0.2708289 -0.123976395 0.026602084 0.048308272 -0.086620845 -0.19612777 0.0895252 -0.14233083 -0.050833214 -0.01706718 0.0443831 0.23712899 0.09737502 -0.058421776 0.0010003475 0.04274203 -0.1215538 -0.020623049 -0.011371909 -0.07811204 -0.0016867368 -0.12213092 0.14065649 -0.11382804 0.048914675 -0.05606807 -0.22663893 0.06201287 -0.151734 0.06233217 0.029363506 -0.008561986 0.113141924
7 -0.039444726 -0.45362666 -0.042055562 0.07087368 0.12832291 -0.11698227 0.15543813 0.09171219 0.17607108 -0.054919567 -0.0365851 0.23897372 -0.00992073 -0.24600095 0.14519827 -0.16902323 -0.0773972 -0.18709421 0.01566145 0.0077005 0.34961894 -0.0137565695 0.054014474 0.059125785 -0.005162557 -0.095588654 -0.088496886 -0.065071516 0.00885019 0.06214552 -0.010531181 0.012752233 -0.041208334 0.06254941 -0.1568244 -0.14139003 0.16001779 0.05484785 -0.03936644 -0.11101921 -0.07972398 0.0029068585 0.16187216 0.19300911 -0.14522377 0.18837811 0.03523294 -0.06625665 0.0910255 0.040247545 -0.18756205 0.17790131 0.022284165 0.08151278 -0.2149217 -0.09493076 -0.029365748 0.09593852 0.042751685 -0.040708933 0.22887433 -0.20726845 0.02722799 0.22799818 -0.17270885 0.052825887 -0.058875326 0.006437385 0.12468175 -0.1694637 -0.119415775 0.07356381 -0.11261085 -0.011772977 0.18381329 0.12614055 0.11212634 0.031303395 -0.047060054 -0.21964502 -0.21475527 -0.0056221467 0.030245038 -0.030584967 -0.21486007 -0.030681606 0.1044706 -0.061669298 0.10963776 0.0039315266 0.29778495 -0.018377297 0.18250279 -0.037635833 -0.1017814 0.18522564 -0.08000647 -0.24378346 0.11987629 0.09538939 -0.12464382 0.042703856 -0.19850045 -0.03834578 -0.12262273 -0.020936495 0.18737482 0.087432384 -0.08106517 -0.07614757 -0.01073995 -0.0036884292 0.0037175878 -0.018970154 -0.14693005 0.04810961 -0.034092676 0.12220097 -0.16301757 -0.03968668 -0.025941199 -0.119009495 0.19545214 -0.20063187 -0.1351081 -0.13018072 0.036137786 0.16163279
30 -0.026413918 -0.120293304 0.06887203 0.06133839 0.057330742 -0.02075483 0.13528013 -0.12584691 -0.11468202 0.045393184 -0.07046514 0.17386417 0.044886302 -0.18543163 -0.06382876 -0.10082579 -0.016151756 -0.07703312 0.01933328 0.0950714 0.193412 0.036872078 0.124855004 0.07693645 -0.14880846 -0.05550605 -0.093239 -0.026930327 -0.014373386 0.21127535 -0.013377337 0.09806272 -0.10972414 0.12849449 -0.24831267 -0.08827498 0.24744856 0.02369592 0.006812272 -0.20120402 -0.19292821 0.16635768 0.075888015 0.1703336 -0.028265143 0.21669102 -0.07698944 -0.034971017 -0.04206824 0.0016424165 -0.020049311 0.17009854 -0.0052443263 0.09934271 -0.21722414 -0.06197543 -0.058689788 0.037647724 -0.07187979 0.03140897 0.13028535 -0.13036934 -0.11208403 0.1439419 -0.07933188 -0.15221731 -0.107603535 -0.020436084 0.07738389 -0.02839178 -0.02934626 0.06358938 -0.07418724 0.056086943 0.027234182 0.060511544 0.018726775 0.079580866 0.03799608 0.06734908 -0.11823139 -0.12681624 0.08400895 -0.1343846 -0.08439762 0.25999263 -0.14327888 -0.043793328 -0.010664724 -0.09239169 0.087405 0.12508129 0.112404816 -0.13858889 -0.030340377 0.31379992 -0.13791162 0.10688404 0.028861182 -0.14689487 -0.21128322 0.11546624 -0.13066041 -0.065007456 0.004830881 0.063402615 0.26033738 0.09985665 -0.0448509 0.03134791 0.05669913 -0.15904346 -0.038472723 -0.010974647 -0.0562806 -0.011129999 -0.15005505 0.14403968 -0.099195465 0.0792754 -0.06726325 -0.2580709 0.032449752 -0.14368168 0.119815774 0.07685799 -0.016712544 0.10697831
31 -0.03419798 -0.19865987 0.049571574 0.05775386 0.07871592 -0.051727198 0.13086429 -0.07404945 -0.057354376 0.024191162 -0.06028566 0.19014567 0.042176798 -0.20146865 -0.018636813 -0.121087626 -0.03333174 -0.092963055 0.026958834 0.07711647 0.22627722 0.028789474 0.10530023 0.07303259 -0.12142936 -0.05170841 -0.08635937 -0.024561264 0.0011340149 0.1749092 -0.016369173 0.082236424 -0.10000203 0.1280922 -0.22289878 -0.100341484 0.2214683 0.023096204 0.0030026108 -0.17574011 -0.16582727 0.12584524 0.09102226 0.17240483 -0.05142516 0.20636739 -0.06140428 -0.042944547 -0.011366768 0.0038926294 -0.06164835 0.15917052 0.004404743 0.10174422 -0.22123952 -0.06704886 -0.045298405 0.0491741 -0.05817477 0.01395696 0.15128124 -0.14385304 -0.091160625 0.15349005 -0.09969621 -0.10043842 -0.09821163 -0.018948287 0.08319907 -0.049888406 -0.053592954 0.061046693 -0.06897207 0.03685531 0.06155052 0.0803675 0.047429085 0.06613162 0.027844634 0.0043123607 -0.13614087 -0.10975874 0.070002995 -0.11927228 -0.11059488 0.19886237 -0.08555576 -0.057001967 0.019693075 -0.07436765 0.12706105 0.09607377 0.12603328 -0.12787119 -0.057388987 0.27859956 -0.13256483 0.02729455 0.04767533 -0.08762196 -0.19937184 0.093114875 -0.13745768 -0.05428725 -0.019661078 0.047808833 0.24373884 0.09954467 -0.05586618 0.0053271945 0.03738791 -0.12896864 -0.02417836 -0.009501342 -0.07823407 0.0014316533 -0.123714745 0.14360698 -0.11811225 0.047202263 -0.057625595 -0.23141707 0.06007103 -0.15888919 0.06734379 0.029381007 -0.012326317 0.113286346
20 -0.03668779 -0.24806015 0.029964648 0.058870897 0.085637 -0.0631826 0.13532706 -0.031985827 -0.0053713047 0.0049585486 -0.057123628 0.1881286 0.028015975 -0.20295797 0.015246251 -0.123959005 -0.041531764 -0.10718676 0.020514723 0.054723233 0.24229813 0.017669806 0.095008284 0.06510885 -0.09143742 -0.05616254 -0.08039163 -0.035037417 0.003052714 0.141542 -0.01672572 0.06112807 -0.08031769 0.10793552 -0.19845349 -0.10622727 0.20409876 0.0277886 -0.010456881 -0.15160257 -0.14417434 0.09121812 0.100418955 0.17030863 -0.06462981 0.19381398 -0.031739414 -0.045794792 0.010034831 0.008654996 -0.085796945 0.15395698 0.011654173 0.08891746 -0.2118982 -0.06846236 -0.044873793 0.054578237 -0.03348182 0.0074047404 0.16072854 -0.14945386 -0.057577983 0.16461575 -0.10628643 -0.06568028 -0.0786658 -0.011625959 0.08726066 -0.06997551 -0.06395916 0.061968423 -0.076826505 0.02581801 0.08123404 0.08753801 0.05928432 0.053858943 0.008174277 -0.04237968 -0.14509176 -0.085307814 0.057826687 -0.09968227 -0.12912828 0.14701676 -0.042658336 -0.05223993 0.033727195 -0.050690543 0.1626619 0.06701558 0.1300531 -0.10203128 -0.061382342 0.24900688 -0.11334992 -0.029940983 0.061285738 -0.043092217 -0.17582522 0.07531636 -0.15131983 -0.04309436 -0.03982068 0.030387025 0.22121978 0.09119936 -0.057864282 -0.01283297 0.025180236 -0.09188747 -0.015918175 -0.011214937 -0.09172915 0.008833828 -0.09431501 0.13364449 -0.122299835 0.027802018 -0.046662375 -0.1929565 0.08953274 -0.16034153 0.022348816 -0.005074584 -0.0020173618 0.11866543
11 -0.04566024 -0.37435398 -0.0053599305 0.070839025 0.11736447 -0.09761667 0.14653029 0.043342274 0.104336455 -0.03364661 -0.0423474 0.2200539 0.0010743763 -0.22147147 0.09356232 -0.1555741 -0.06275025 -0.15757805 0.020070447 0.024021933 0.30651292 -0.00077089755 0.07328273 0.061192557 -0.041933257 -0.083112046 -0.08713566 -0.05004331 0.0029187542 0.0936884 -0.012230075 0.03243546 -0.054217666 0.07701011 -0.1688765 -0.12226235 0.18265231 0.051210932 -0.025517441 -0.12010941 -0.10185191 0.042817038 0.1438902 0.18278404 -0.115666606 0.19015265 0.010868622 -0.056553137 0.05134935 0.03241748 -0.13984619 0.17088191 0.016004357 0.082607724 -0.21026142 -0.09177401 -0.037187666 0.08338071 0.0074253785 -0.023309115 0.19801453 -0.18574299 -0.0047603315 0.20175914 -0.14735773 0.002846409 -0.07185849 -0.003687635 0.11158071 -0.13324897 -0.09216658 0.06633048 -0.10006532 0.0019482657 0.14363994 0.10662105 0.09110255 0.03672899 -0.029414527 -0.14490627 -0.18016082 -0.033919603 0.040121663 -0.05909919 -0.18186383 0.04189922 0.049374346 -0.05637739 0.08057955 -0.018567204 0.23269284 0.015222394 0.15992695 -0.05738431 -0.082927965 0.20731139 -0.09153425 -0.15335931 0.09742428 0.04138572 -0.14052247 0.061523665 -0.17701596 -0.041306276 -0.09032201 0.00083048793 0.20555529 0.085599504 -0.07055941 -0.054080777 0.0043480806 -0.038715072 -0.009026553 -0.01750268 -0.120525874 0.03246732 -0.062266454 0.13160351 -0.14608714 -0.014801308 -0.031842202 -0.15498881 0.15458323 -0.18766297 -0.07513045 -0.07982501 0.016929805 0.14396544
5 -0.040762886 -0.40392616 -0.01955855 0.07154531 0.12429085 -0.105160765 0.15698268 0.049891032 0.124200396 -0.03812163 -0.03968508 0.2349541 -0.0034387605 -0.23533593 0.10746969 -0.16393386 -0.06900167 -0.16896911 0.019476146 0.02518679 0.32049388 0.0010155655 0.06339415 0.061796423 -0.031593967 -0.0872403 -0.083320096 -0.05702599 0.0054225186 0.089433625 -0.0168548 0.02413868 -0.05674582 0.08136047 -0.16498779 -0.1328478 0.1740908 0.053052425 -0.0306562 -0.12037958 -0.09200905 0.02881195 0.14515622 0.18528813 -0.12542664 0.18690304 0.015945697 -0.062644094 0.064195976 0.031807736 -0.15505108 0.17249604 0.021927953 0.077756345 -0.20738602 -0.09354761 -0.033961535 0.0863499 0.022743374 -0.03543775 0.20430355 -0.1923855 0.0035399909 0.20818269 -0.15469684 0.016337352 -0.061780833 -0.0036071213 0.11460803 -0.14310925 -0.100481555 0.06720453 -0.10069603 -0.003208987 0.15314138 0.107697986 0.09534587 0.033916343 -0.034022305 -0.16840732 -0.19568658 -0.031201957 0.03489891 -0.051518053 -0.1906583 0.018686028 0.06565557 -0.055062503 0.09036241 -0.014315356 0.25510833 0.006432187 0.16495731 -0.053743817 -0.09360499 0.20252895 -0.095211335 -0.18238264 0.11008751 0.058692224 -0.14067908 0.051077817 -0.18055777 -0.046060074 -0.103244 -0.007099497 0.20170705 0.089889444 -0.08104828 -0.061148718 -0.005354458 -0.03360067 0.0004297378 -0.01743681 -0.12843947 0.042439327 -0.048260283 0.12860955 -0.14758764 -0.020685531 -0.03116697 -0.14074771 0.16321172 -0.19157875 -0.09234044 -0.08859941 0.022348061 0.15072678
25 -0.033928137 -0.15246989 0.06486557 0.058335744 0.06627926 -0.034097776 0.1344836 -0.11967328 -0.105444506 0.039435223 -0.07086877 0.17597912 0.05026949 -0.18821768 -0.05792862 -0.10560492 -0.016302373 -0.08403521 0.028456604 0.0988564 0.2104956 0.037533484 0.12575349 0.08446772 -0.1521892 -0.057075895 -0.0982011 -0.028252985 -0.012213867 0.21232347 -0.009420313 0.09663975 -0.10749737 0.1297691 -0.25705704 -0.09543675 0.2458652 0.023825198 0.0012429889 -0.20558804 -0.19590312 0.16082367 0.07414424 0.16948484 -0.03231982 0.22702175 -0.07813672 -0.027739996 -0.03062671 -0.002121091 -0.03313229 0.17109111 -0.0050067096 0.10728254 -0.23054121 -0.06401483 -0.04631315 0.03996282 -0.077535346 0.03287707 0.13607676 -0.13248217 -0.1097019 0.15088747 -0.09673995 -0.1422499 -0.11138295 -0.017392738 0.074787475 -0.028739896 -0.042524714 0.06648 -0.073939495 0.0561527 0.034505337 0.06856922 0.018354123 0.08074767 0.041008424 0.050000638 -0.12825723 -0.12953173 0.090983935 -0.13488883 -0.09253336 0.25476778 -0.13351963 -0.05452895 -0.003321154 -0.09940446 0.09437377 0.12270511 0.12436343 -0.14779149 -0.03674982 0.3151688 -0.14023636 0.091099195 0.03334837 -0.13890468 -0.22038414 0.11466748 -0.13399987 -0.056638494 0.005425161 0.067096904 0.26739222 0.1053739 -0.04399042 0.03145747 0.051368907 -0.15824752 -0.029075181 -0.0061811362 -0.0685234 -0.012218757 -0.14196287 0.14350049 -0.101132765 0.06421051 -0.06311461 -0.25840375 0.033378333 -0.15613441 0.11420655 0.070064284 -0.026580073 0.107468076
29 -0.031836398 -0.17678232 0.044661395 0.051767364 0.073575094 -0.042795014 0.12544553 -0.078266405 -0.058632843 0.025762662 -0.059068963 0.17616342 0.033163644 -0.18326902 -0.022512149 -0.10589488 -0.02864567 -0.08945249 0.024415921 0.072940856 0.20726717 0.026753932 0.09701825 0.066355556 -0.121574536 -0.05269439 -0.084425695 -0.028520577 0.0006878055 0.17044334 -0.010117872 0.07426884 -0.08766869 0.11636965 -0.21778971 -0.094125845 0.21491964 0.024421852 0.0018161617 -0.1696375 -0.15429138 0.12343414 0.077451214 0.15636751 -0.04103997 0.1985928 -0.057723228 -0.036246683 -0.016535541 0.0033303075 -0.05031368 0.14740093 0.0005412637 0.09419288 -0.21074636 -0.056193754 -0.041849315 0.048130166 -0.050552256 0.019694518 0.13646208 -0.13539943 -0.08569433 0.14556782 -0.09246287 -0.10276612 -0.09207156 -0.017532041 0.08098895 -0.041461486 -0.050136648 0.058644302 -0.071349874 0.040562708 0.05103188 0.07588532 0.03944817 0.06345235 0.025076367 0.008619257 -0.12973633 -0.09962887 0.07266305 -0.113090836 -0.100145 0.19423518 -0.08238405 -0.05151574 0.014236937 -0.0741376 0.117677934 0.08810917 0.11192804 -0.117274225 -0.041584015 0.26711485 -0.12440879 0.039104354 0.04202424 -0.09593945 -0.1850932 0.092276625 -0.12994774 -0.048874285 -0.011674888 0.045601223 0.22517921 0.08670426 -0.04929416 0.01056504 0.040659238 -0.119584166 -0.02598046 -0.009390845 -0.073617354 -0.0046923966 -0.11640204 0.12576629 -0.09909915 0.045158494 -0.05395671 -0.21707813 0.051891055 -0.14498019 0.07365965 0.033257827 -0.011981005 0.10035324
26 -0.024944816 -0.10567829 0.077038705 0.05381317 0.06088322 -0.022446774 0.13113381 -0.13840558 -0.13696803 0.047255937 -0.07081987 0.15987128 0.056776013 -0.17734021 -0.07579498 -0.086973175 -0.0108710965 -0.06810447 0.02552258 0.10123271 0.18592829 0.04153151 0.12551369 0.082069725 -0.16111721 -0.049309812 -0.0986084 -0.026401304 -0.013538202 0.21702528 -0.0074521913 0.10282057 -0.10724826 0.12691793 -0.25141713 -0.088421665 0.24508184 0.014522839 0.007680941 -0.20290732 -0.1932947 0.16503508 0.058130816 0.15633397 -0.020637212 0.21733528 -0.09152602 -0.025349708 -0.046169873 -0.0017498718 -0.0070253247 0.16030845 -0.010935269 0.0989639 -0.21409747 -0.05582935 -0.046936348 0.033222374 -0.08618356 0.03522567 0.121973 -0.120131195 -0.11936842 0.13710335 -0.077323966 -0.15428847 -0.107454576 -0.024385493 0.07089023 -0.01099816 -0.029569639 0.06281434 -0.072276354 0.057850234 0.019074766 0.057679683 0.0053618406 0.08042426 0.043696623 0.07710939 -0.11327065 -0.128183 0.0941068 -0.13352749 -0.070266515 0.27146217 -0.15560402 -0.04585732 -0.013741805 -0.1000581 0.07071468 0.1322285 0.109662145 -0.14350037 -0.023154976 0.30852273 -0.13811634 0.12476859 0.023183232 -0.16112216 -0.21242271 0.116331525 -0.11690724 -0.05500824 0.018210916 0.073233366 0.25853926 0.098621614 -0.032716975 0.045604788 0.05521395 -0.16501154 -0.034872364 -0.00086682074 -0.0522003 -0.016067928 -0.1468361 0.13424261 -0.084156364 0.07223586 -0.0641357 -0.2624166 0.013730362 -0.14078711 0.13544102 0.08737945 -0.028009478 0.0911051
15 -0.03690852 -0.16831125 0.06345886 0.053735733 0.07289687 -0.031644177 0.13592635 -0.10115454 -0.08219043 0.032499943 -0.06430712 0.18213701 0.04132321 -0.19193725 -0.03653319 -0.111431286 -0.028460525 -0.08754147 0.020799361 0.07885408 0.21363106 0.03633037 0.11336291 0.07613786 -0.13757776 -0.05229008 -0.09263086 -0.026930872 -0.0058533656 0.18601452 -0.0158949 0.092087604 -0.099004015 0.12521154 -0.22869253 -0.095127076 0.2258705 0.021519596 0.006809324 -0.17794257 -0.1792357 0.14193755 0.080101185 0.16583204 -0.035013806 0.21076488 -0.070019096 -0.037065398 -0.027289761 0.00063774764 -0.03967905 0.1597026 -0.0008308028 0.10135168 -0.2181155 -0.06721642 -0.05642294 0.037903246 -0.060927484 0.0268566 0.13899605 -0.12922984 -0.09850915 0.14154156 -0.084893525 -0.119563565 -0.09332531 -0.01974062 0.0819054 -0.033696704 -0.03762692 0.05832659 -0.06775802 0.042818986 0.038058706 0.06771516 0.03345729 0.06956428 0.02596338 0.028466364 -0.12220936 -0.111419715 0.07663687 -0.12697446 -0.100528456 0.22056648 -0.111932084 -0.052262317 0.0037381095 -0.07815874 0.108557686 0.11174963 0.11835526 -0.1330045 -0.047523655 0.29198748 -0.12853938 0.06774833 0.040129866 -0.11064573 -0.19846074 0.100076035 -0.13499817 -0.054976724 -0.0033548966 0.048544377 0.24777274 0.09720952 -0.04804761 0.012207839 0.0466085 -0.1379608 -0.03130491 -0.013194003 -0.07006951 -0.00095201784 -0.1289046 0.143837 -0.10940722 0.06336813 -0.05595928 -0.24036872 0.050584514 -0.1427029 0.08591026 0.050602 -0.012982491 0.10853897
17 -0.043600846 -0.41842452 -0.023673661 0.07375981 0.119801804 -0.11140335 0.15418793 0.070951715 0.14376742 -0.03919079 -0.037480764 0.23496799 -0.0044902973 -0.23136461 0.116712205 -0.15950672 -0.06950467 -0.179133 0.01704631 0.01894564 0.32860166 -0.009460283 0.06403343 0.055157132 -0.019571373 -0.085244834 -0.08581187 -0.057073236 0.010368162 0.08449952 -0.012533363 0.018734675 -0.04525946 0.07371713 -0.16456288 -0.13844511 0.17422132 0.056889504 -0.034368034 -0.11412125 -0.08989232 0.015485922 0.14969292 0.19235045 -0.13408123 0.18655016 0.025437575 -0.059315264 0.072005 0.038230535 -0.1677766 0.1689444 0.019509742 0.07662493 -0.2084961 -0.09588521 -0.03819242 0.096956834 0.029872935 -0.03996243 0.21411026 -0.19820388 0.014296634 0.21237487 -0.16042028 0.03256017 -0.06404384 -0.00030817423 0.119259596 -0.14884062 -0.11105241 0.0691885 -0.10480239 -0.0074093393 0.16764708 0.12188916 0.100507915 0.030361515 -0.036107462 -0.18914029 -0.19874328 -0.020039707 0.039126765 -0.03890207 -0.20181432 0.003136475 0.08538938 -0.06143681 0.10168984 -0.009390542 0.2626914 -0.00417847 0.16853936 -0.043499064 -0.09567685 0.19406953 -0.083711796 -0.19873905 0.115512446 0.07299874 -0.12920989 0.047643 -0.18840837 -0.03756157 -0.10738326 -0.010104585 0.19729103 0.084178045 -0.08290512 -0.062090073 -0.006125151 -0.021912212 0.0052321316 -0.013261457 -0.13270424 0.041257203 -0.046282813 0.13028553 -0.15270656 -0.03439078 -0.024685713 -0.1326376 0.17697819 -0.19169813 -0.10984621 -0.10816735 0.026235348 0.15511203
13 -0.03690245 -0.32261014 0.005095479 0.05844564 0.10135463 -0.084449425 0.13783334 0.011293525 0.061628986 -0.0137783075 -0.049250245 0.19718927 0.015861213 -0.21353553 0.062260672 -0.13793851 -0.054346908 -0.13343586 0.019954711 0.036903426 0.2763068 0.0076571563 0.07232753 0.05929274 -0.0634019 -0.06794634 -0.075808816 -0.03997774 0.007629422 0.109756835 -0.015999543 0.04221445 -0.063581534 0.0886569 -0.17705294 -0.117949925 0.18150084 0.041965563 -0.017185282 -0.1296532 -0.109686 0.05459809 0.11918049 0.17362225 -0.094069496 0.18659937 -0.010533581 -0.049927875 0.037980046 0.022143675 -0.12117676 0.15602979 0.017532287 0.08639667 -0.20664422 -0.07839572 -0.038035408 0.068257354 -0.0049177394 -0.015311892 0.178937 -0.16468395 -0.027281212 0.17592339 -0.1240176 -0.019508662 -0.07137147 -0.010280203 0.10079331 -0.10562725 -0.084227055 0.05949797 -0.08205903 0.0073796716 0.116322175 0.09372984 0.07375405 0.042209376 -0.013629411 -0.10991579 -0.16677341 -0.057291035 0.044566765 -0.072687484 -0.15793802 0.07501847 0.017576223 -0.055724252 0.06111098 -0.026777105 0.20708482 0.0303411 0.13987777 -0.07928079 -0.073725194 0.20876287 -0.0997499 -0.11018848 0.07962827 0.009566227 -0.14359382 0.060201366 -0.15736793 -0.03959145 -0.06823091 0.007591186 0.20428298 0.084704086 -0.067481935 -0.040415432 0.011200804 -0.06040874 -0.006211017 -0.007244634 -0.110440604 0.01985159 -0.07004573 0.12550439 -0.12842125 -0.00513022 -0.034959685 -0.15722102 0.12446715 -0.16514039 -0.035916477 -0.04881204 0.012946983 0.12944643
21 -0.038021557 -0.17292687 0.05992451 0.053883657 0.071998924 -0.038567927 0.1354504 -0.09488868 -0.07474088 0.034313437 -0.06456363 0.18686168 0.04050408 -0.19948821 -0.03429119 -0.11173415 -0.026448062 -0.08873669 0.02550212 0.080492236 0.21566306 0.032598898 0.109363444 0.0765228 -0.13171035 -0.054192226 -0.08960168 -0.026162501 -0.004276031 0.18479523 -0.012544377 0.08719375 -0.1002288 0.12739334 -0.23229045 -0.10032812 0.22720663 0.026163762 0.0060993386 -0.17678632 -0.1778424 0.14076109 0.08163405 0.16617955 -0.042998843 0.20824958 -0.06302073 -0.03745547 -0.021048982 0.00198035 -0.04048814 0.16240579 0.0028027354 0.09816904 -0.21977738 -0.063010566 -0.052794572 0.04018459 -0.06341687 0.026449278 0.13727883 -0.13550489 -0.09606439 0.15092288 -0.08541174 -0.11951548 -0.09467885 -0.021557296 0.07799134 -0.0445816 -0.03878853 0.056817032 -0.06947246 0.04545986 0.0460994 0.07065883 0.032953657 0.06521384 0.028269926 0.02727704 -0.1265019 -0.11127296 0.0737497 -0.12606187 -0.10423492 0.21500488 -0.10689255 -0.051574774 0.010340286 -0.08062273 0.115127146 0.10814057 0.115198344 -0.12499158 -0.04625217 0.28658217 -0.13190182 0.058211062 0.042131793 -0.10838273 -0.20135327 0.0977159 -0.13601813 -0.05212004 -0.0044549964 0.05283653 0.24458265 0.09329406 -0.05121398 0.010985221 0.049752664 -0.13129327 -0.02942369 -0.009288283 -0.07172136 0.0008649434 -0.13111886 0.14080778 -0.10776831 0.061758578 -0.05801106 -0.23640999 0.05081028 -0.15025137 0.08553143 0.045904584 -0.010482619 0.10554018
18 -0.0378824 -0.297724 0.013041536 0.058819693 0.10169122 -0.07751285 0.13169171 -0.005222128 0.034389235 -0.0015943422 -0.053815015 0.20333962 0.024782363 -0.21178673 0.04204707 -0.13812794 -0.047281023 -0.11936117 0.021253888 0.05467578 0.2659656 0.013338351 0.088981465 0.061490122 -0.07270881 -0.05829925 -0.079459414 -0.0384809 0.008007824 0.12788521 -0.013382501 0.05233304 -0.07038628 0.103513 -0.18524952 -0.114536375 0.18373781 0.032958437 -0.011093145 -0.13226253 -0.12447558 0.07379151 0.10740851 0.16939773 -0.08205199 0.18957101 -0.028987823 -0.048505258 0.029240321 0.012651252 -0.10291521 0.14645453 0.017319726 0.09207169 -0.20727591 -0.06704606 -0.03728536 0.062004186 -0.02120593 -0.0061414973 0.16875912 -0.16232982 -0.04079262 0.1698181 -0.11181954 -0.03570606 -0.071678415 -0.014698222 0.09730531 -0.082986884 -0.07575267 0.05939741 -0.072914585 0.012780691 0.10261142 0.09409703 0.06994659 0.051979292 0.00034919282 -0.07961324 -0.16223219 -0.06662972 0.052480668 -0.08604749 -0.14560504 0.10689542 -0.005975703 -0.055692833 0.049202904 -0.03663152 0.18497351 0.04303469 0.13782626 -0.092320316 -0.073560886 0.2259715 -0.11061957 -0.06931061 0.07590651 -0.017401036 -0.15832105 0.069602095 -0.14875902 -0.039890565 -0.053318538 0.019191958 0.20580842 0.0858424 -0.06650905 -0.03129504 0.012486854 -0.07850265 -0.011545702 -0.011496604 -0.098848075 0.013184877 -0.079117335 0.1205209 -0.12284747 0.0075000385 -0.040398587 -0.17859963 0.103660755 -0.16182233 -0.005829398 -0.035580114 0.004067205 0.116632625
22 -0.03716742 -0.33612227 0.0005946241 0.06101825 0.10618217 -0.089672364 0.13439868 0.020876156 0.06728271 -0.019632854 -0.04985882 0.20710169 0.014753173 -0.21745025 0.06920291 -0.14262657 -0.055814046 -0.1361888 0.026661199 0.04212825 0.28188083 0.0064805765 0.07929036 0.05813447 -0.06002471 -0.063919865 -0.08074874 -0.04728174 0.009322999 0.1106963 -0.012784565 0.035622235 -0.06617152 0.09131591 -0.17791657 -0.12222367 0.17547178 0.03723384 -0.021220187 -0.12770969 -0.10638895 0.046273448 0.119795896 0.17792374 -0.09311948 0.18771009 -0.0122817345 -0.050668314 0.046019312 0.018910492 -0.12541835 0.14940663 0.013258837 0.08396031 -0.20268601 -0.0751819 -0.03326785 0.07803849 -0.0011830755 -0.01750978 0.1809434 -0.16756052 -0.019994754 0.18497603 -0.12753978 -0.010087668 -0.070065916 -0.0069473 0.10393123 -0.10182212 -0.085787885 0.063811615 -0.08209824 0.007126337 0.124272056 0.101942584 0.07692076 0.04551385 -0.009697621 -0.11594271 -0.17417477 -0.05475804 0.046111077 -0.07409389 -0.16098888 0.067319565 0.025838299 -0.06097359 0.069333754 -0.028163701 0.21327575 0.025916446 0.14470862 -0.07817782 -0.07956936 0.2117652 -0.10216286 -0.11583962 0.08985981 0.012544247 -0.14843203 0.05939082 -0.15731823 -0.03556091 -0.07010958 0.010765522 0.20093404 0.08996674 -0.07132238 -0.041156523 0.009115378 -0.056636386 -0.001615179 -0.008630861 -0.11203243 0.022912778 -0.068927914 0.12382419 -0.13848735 -0.0061353836 -0.033588797 -0.16097966 0.12766258 -0.17298302 -0.039507207 -0.056948 0.015952561 0.12810308
19 -0.03210095 -0.19699943 0.057698455 0.058616422 0.078450024 -0.042158395 0.13968672 -0.086082794 -0.061441176 0.026637767 -0.06744404 0.19393483 0.036290936 -0.20189425 -0.025440238 -0.11670251 -0.032079305 -0.100272514 0.026271814 0.08091718 0.22715034 0.02820582 0.111681476 0.078455545 -0.12867141 -0.056708258 -0.096001014 -0.030007496 -0.0060931435 0.18464065 -0.013715207 0.086509295 -0.09947388 0.121655725 -0.23458906 -0.103779025 0.23066519 0.029676769 0.0024360789 -0.1807533 -0.17506248 0.13460898 0.092971615 0.17544922 -0.04725036 0.21631125 -0.05683376 -0.04356686 -0.01838772 0.007953432 -0.054594837 0.16782597 -0.002489262 0.10149338 -0.22303104 -0.06901066 -0.055554464 0.051566564 -0.051940653 0.017740129 0.14912947 -0.14681615 -0.089083776 0.16182652 -0.099904224 -0.11527684 -0.094650686 -0.018172547 0.08415541 -0.05430613 -0.04867025 0.06486219 -0.07737768 0.04335614 0.053745724 0.07326308 0.042992547 0.07087791 0.020337626 0.0071686003 -0.13767156 -0.108654186 0.07653458 -0.1226845 -0.11495327 0.21077219 -0.09195531 -0.050523944 0.011662636 -0.07855782 0.12690236 0.10535854 0.1301869 -0.12548375 -0.053213008 0.29623693 -0.13207988 0.039265297 0.04843715 -0.10264322 -0.20067348 0.102503896 -0.14697297 -0.06004844 -0.017893558 0.049058545 0.25249222 0.09952568 -0.05446313 0.007860837 0.042057958 -0.131602 -0.026699077 -0.012573895 -0.07468406 0.003296688 -0.12411912 0.14880791 -0.11812845 0.056041267 -0.05931879 -0.23992497 0.061465796 -0.16088796 0.068650216 0.03702586 -0.013557637 0.11460839
16 -0.03492919 -0.17474622 0.058126397 0.055533882 0.07280263 -0.041597538 0.13439187 -0.09027062 -0.075025655 0.031245427 -0.068131305 0.18174554 0.0411308 -0.1925362 -0.030819803 -0.113441475 -0.029916672 -0.09091357 0.020833306 0.07730636 0.21260352 0.034026254 0.113131575 0.071691774 -0.13026287 -0.050493382 -0.08755995 -0.026018517 -0.0045419005 0.17996922 -0.017431596 0.087843716 -0.0999817 0.12058051 -0.22640273 -0.095307924 0.2281128 0.018779121 0.0006387979 -0.18153876 -0.17463306 0.13757433 0.08404174 0.16664512 -0.038434584 0.20397532 -0.06320686 -0.03296397 -0.024317337 0.0052477596 -0.041208953 0.15715337 0.0009816511 0.101511605 -0.21449652 -0.061922222 -0.049593695 0.045037 -0.061097335 0.019664457 0.14071488 -0.13782054 -0.09647947 0.14286025 -0.08689057 -0.115592845 -0.09451621 -0.014615468 0.07688208 -0.041182853 -0.040568065 0.056421466 -0.06643946 0.040505875 0.048031483 0.06966866 0.038126204 0.065553926 0.027594173 0.024645608 -0.122407556 -0.11527153 0.075684026 -0.124186434 -0.098881565 0.21862821 -0.10255844 -0.04748764 0.010509198 -0.076954365 0.10893333 0.10544061 0.11262785 -0.12839952 -0.044446304 0.2852497 -0.1264023 0.05235131 0.03867117 -0.11070903 -0.1941518 0.09954036 -0.12729949 -0.054612316 -0.0095849335 0.04954558 0.24171147 0.09546724 -0.04680394 0.015565354 0.04216545 -0.13095826 -0.0301045 -0.004954942 -0.06893637 -0.002551969 -0.12767029 0.14149566 -0.10594579 0.051578417 -0.057714555 -0.23151477 0.046510268 -0.14945365 0.08811028 0.046183165 -0.014176256 0.11040907
10 -0.034388967 -0.21936241 0.03884993 0.057091918 0.08214075 -0.047203757 0.13250174 -0.05655051 -0.027516514 0.012831149 -0.05687493 0.18771608 0.028988242 -0.19160002 -0.004391958 -0.11379527 -0.03194277 -0.09727814 0.02255756 0.0675413 0.22839518 0.023250723 0.09872595 0.07052748 -0.10891661 -0.056914117 -0.084035546 -0.03364999 -0.0019554326 0.1554379 -0.01570826 0.06751316 -0.084821284 0.11492222 -0.21183614 -0.10109095 0.20938845 0.02411293 -0.0048172195 -0.16210724 -0.1540777 0.10815493 0.097352475 0.17045967 -0.05340309 0.20034772 -0.043610223 -0.04224545 0.0027378567 0.0049933274 -0.06719939 0.15524009 0.007886202 0.09382193 -0.21142262 -0.064439684 -0.044028413 0.049022067 -0.045750935 0.0128615275 0.14949588 -0.14225212 -0.07526791 0.15614226 -0.0998386 -0.08184446 -0.0880809 -0.017558265 0.081073724 -0.06315366 -0.052499622 0.05674394 -0.0692208 0.0323779 0.069700904 0.08022858 0.046262793 0.059082665 0.011861016 -0.01887555 -0.14226127 -0.09543456 0.06531665 -0.10225177 -0.12073926 0.16908206 -0.0662792 -0.054493338 0.026240228 -0.06421286 0.14316209 0.0816332 0.12749729 -0.1086827 -0.054864466 0.2616946 -0.11915736 -0.00024823163 0.05370216 -0.06740334 -0.18005382 0.08456194 -0.13998269 -0.048648085 -0.028937235 0.036435302 0.23159665 0.09580694 -0.058756668 -0.0014975572 0.036378812 -0.11183831 -0.018024307 -0.010477142 -0.08031347 0.005676344 -0.10539391 0.135935 -0.11656877 0.035169788 -0.050071925 -0.21089979 0.07326191 -0.15127552 0.048015114 0.011765312 -0.0059278468 0.11324684
23 -0.03444706 -0.17221081 0.05974996 0.060597166 0.075614065 -0.035742473 0.13983615 -0.0980398 -0.08480217 0.033518992 -0.0720178 0.19071254 0.044881694 -0.2047922 -0.043552667 -0.11181045 -0.025333853 -0.08682637 0.027292863 0.091101706 0.2192906 0.0341077 0.11691475 0.08073399 -0.14157459 -0.056622073 -0.09947487 -0.031272687 -0.009644056 0.20216835 -0.013561171 0.09526515 -0.10740282 0.13211167 -0.24779336 -0.1035819 0.24387869 0.02056624 0.00055045163 -0.1900208 -0.18767726 0.14968997 0.08763827 0.17788014 -0.038524047 0.21811889 -0.07201621 -0.03504223 -0.028902857 0.0022555434 -0.04044517 0.16684774 0.0025123344 0.10385159 -0.23016159 -0.07002369 -0.056240533 0.045213316 -0.066875964 0.022186318 0.1445964 -0.1429257 -0.10178857 0.15568152 -0.089549385 -0.12921058 -0.09906176 -0.017249063 0.08441268 -0.03610032 -0.043456115 0.064693 -0.07034471 0.049169853 0.04061658 0.07412113 0.03515079 0.07505974 0.035176028 0.0338505 -0.12702236 -0.12276575 0.08468273 -0.13043655 -0.10391168 0.23907791 -0.11721134 -0.050571498 0.0023307516 -0.08659534 0.113761455 0.11534804 0.11842542 -0.1380201 -0.04958976 0.30269194 -0.1364088 0.06519718 0.03894916 -0.11734569 -0.2123023 0.10557827 -0.1358565 -0.061644092 -0.0068891486 0.052206933 0.2563764 0.099093646 -0.048777964 0.019149011 0.0448929 -0.14680362 -0.031980775 -0.011730661 -0.07306137 -0.006644697 -0.1393394 0.14803708 -0.11031113 0.06192181 -0.06034326 -0.24842647 0.046805095 -0.15710005 0.0968265 0.049014293 -0.015727509 0.1112063
27 -0.029878419 -0.15107927 0.06102551 0.053039458 0.0685392 -0.029321186 0.13380839 -0.10257133 -0.099156044 0.037781917 -0.06815712 0.17363395 0.043210763 -0.18388525 -0.04956689 -0.105344385 -0.01580066 -0.08217182 0.024490472 0.08387247 0.20354451 0.038180597 0.11722052 0.08020643 -0.14284725 -0.055427838 -0.09795204 -0.021811165 -0.008522051 0.19950448 -0.012157102 0.08998326 -0.105975606 0.12742227 -0.23838696 -0.098329246 0.23688789 0.020997642 0.0025217358 -0.19199832 -0.18853438 0.1496711 0.07846177 0.17066482 -0.0344569 0.21672608 -0.06860774 -0.035313588 -0.031061415 0.0016460678 -0.031243412 0.16537341 -0.0047459686 0.10753317 -0.2236545 -0.06628419 -0.052448094 0.041649852 -0.06718849 0.029566096 0.13273063 -0.12892179 -0.10882142 0.14764017 -0.08684165 -0.13253635 -0.104505174 -0.01584776 0.07603194 -0.03510493 -0.04389443 0.06694993 -0.07033678 0.045512345 0.033860423 0.06546223 0.02871107 0.071412496 0.031708863 0.044934545 -0.12500565 -0.122365646 0.08232125 -0.12370169 -0.096800685 0.24179874 -0.11772353 -0.050704412 -0.0036663571 -0.08703257 0.097228125 0.11276951 0.11681129 -0.13693984 -0.04251931 0.29942188 -0.13414586 0.075087145 0.03654342 -0.13059784 -0.21274626 0.106054075 -0.12883285 -0.0604656 0.0024408607 0.061869014 0.25798252 0.09585789 -0.050247606 0.025676437 0.05320991 -0.14698747 -0.030865226 -0.009029725 -0.06395809 -0.009562609 -0.13807808 0.14311509 -0.10524394 0.06249916 -0.0642807 -0.24667068 0.041883517 -0.15146989 0.099869244 0.060334727 -0.017005837 0.10685035
12 -0.044049826 -0.3568603 -0.0041927006 0.06182531 0.10829616 -0.09333458 0.13926038 0.028583914 0.08448796 -0.021639533 -0.041536152 0.21767394 0.0074501117 -0.21990241 0.0809196 -0.14495164 -0.06308183 -0.14468326 0.02284542 0.028519861 0.29468334 0.0056565856 0.073312685 0.055982396 -0.05192115 -0.07503531 -0.079358794 -0.046044618 0.008298533 0.099801145 -0.012268113 0.036079537 -0.061680485 0.08694851 -0.17028072 -0.1189873 0.17390065 0.04569005 -0.022180462 -0.121405676 -0.10470092 0.043590024 0.13238688 0.17581297 -0.106175184 0.18816878 0.0013753128 -0.056753773 0.046485197 0.02366943 -0.13533832 0.16030863 0.01651942 0.079399854 -0.20944552 -0.08469385 -0.035887223 0.07748508 0.004592805 -0.019114919 0.19281662 -0.17458726 -0.01660956 0.19147292 -0.13809285 -0.0021034789 -0.065131396 -0.0066464804 0.10854322 -0.11390855 -0.0853851 0.06516481 -0.08661518 0.0055851913 0.13210496 0.10376369 0.09003408 0.043923486 -0.019050423 -0.12800649 -0.1777904 -0.043211035 0.038591083 -0.06566347 -0.1718928 0.05560907 0.03609509 -0.058632188 0.07149679 -0.0254781 0.22439253 0.024100782 0.1498054 -0.06818636 -0.08056391 0.20437573 -0.093740195 -0.14104599 0.09377678 0.029075209 -0.14611773 0.0527585 -0.1663712 -0.03878731 -0.080333844 -0.00029339764 0.20026235 0.08663111 -0.068276756 -0.05104646 0.0010961008 -0.048179183 -0.004757698 -0.0110766245 -0.114771955 0.03219539 -0.06307074 0.1287086 -0.14342812 -0.013811191 -0.034961708 -0.15527914 0.14103071 -0.17398424 -0.059423894 -0.068807654 0.013156243 0.13444701
